{"learner":{"attributes":{"scikit_learn":"{\"_estimator_type\": \"regressor\"}"},"feature_names":["brand_name","has_5g","has_nfc","has_ir_blaster","processor_brand","num_cores","processor_speed","battery_capacity","fast_charging_available","fast_charging","ram_capacity","internal_memory","screen_size","refresh_rate","num_rear_cameras","num_front_cameras","os","primary_camera_rear","primary_camera_front","extended_memory_available","extended_upto","width","height"],"feature_types":["c","i","i","i","c","float","float","float","i","float","float","float","float","int","int","float","c","float","float","i","float","int","int"],"gradient_booster":{"model":{"gbtree_model_param":{"num_parallel_tree":"1","num_trees":"100"},"iteration_indptr":[0,1,2,3,4,5,6,7,8,9,10,11,12,13,14,15,16,17,18,19,20,21,22,23,24,25,26,27,28,29,30,31,32,33,34,35,36,37,38,39,40,41,42,43,44,45,46,47,48,49,50,51,52,53,54,55,56,57,58,59,60,61,62,63,64,65,66,67,68,69,70,71,72,73,74,75,76,77,78,79,80,81,82,83,84,85,86,87,88,89,90,91,92,93,94,95,96,97,98,99,100],"tree_info":[0,0,0,0,0,0,0,0,0,0,0,0,0,0,0,0,0,0,0,0,0,0,0,0,0,0,0,0,0,0,0,0,0,0,0,0,0,0,0,0,0,0,0,0,0,0,0,0,0,0,0,0,0,0,0,0,0,0,0,0,0,0,0,0,0,0,0,0,0,0,0,0,0,0,0,0,0,0,0,0,0,0,0,0,0,0,0,0,0,0,0,0,0,0,0,0,0,0,0,0],"trees":[{"base_weights":[5.920728E-6,-7.11035E1,1.9692883E2,-1.3951747E2,-2.3020744E1,5.978681E1,2.353666E2,-1.625691E1,-1.1359919E1,-4.5277987E0,5.549147E0,-1.0219394E1,1.0194953E1,2.0187902E1,3.2682163E1],"categories":[],"categories_nodes":[],"categories_segments":[],"categories_sizes":[],"default_left":[0,0,0,1,0,0,0,0,0,0,0,0,0,0,0],"id":0,"left_children":[1,3,5,7,9,11,13,-1,-1,-1,-1,-1,-1,-1,-1],"loss_changes":[1.0767791E7,1.8553738E6,1.0613005E6,1.207405E5,5.8441856E5,3.2457788E5,4.20976E5,0E0,0E0,0E0,0E0,0E0,0E0,0E0,0E0],"parents":[2147483647,0,0,1,1,2,2,3,3,4,4,5,5,6,6],"right_children":[2,4,6,8,10,12,14,-1,-1,-1,-1,-1,-1,-1,-1],"split_conditions":[2.7E0,6E0,1E0,1.5E1,2.5E1,1E0,2.48E3,-1.625691E1,-1.1359919E1,-4.5277987E0,5.549147E0,-1.0219394E1,1.0194953E1,2.0187902E1,3.2682163E1],"split_indices":[6,10,2,9,18,1,22,0,0,0,0,0,0,0,0],"split_type":[0,0,0,0,0,0,0,0,0,0,0,0,0,0,0],"sum_hessian":[7.67E2,5.64E2,2.03E2,2.32E2,3.32E2,4.5E1,1.58E2,1.2E2,1.12E2,2.59E2,7.3E1,9E0,3.6E1,1.18E2,4E1],"tree_param":{"num_deleted":"0","num_feature":"23","num_nodes":"15","size_leaf_vector":"1"}},{"base_weights":[3.4187358E-2,-7.1745186E1,1.5921005E2,-1.2568425E2,-2.9330593E1,5.1397434E1,2.0178233E2,-9.163333E0,-1.4064728E1,-4.9445944E0,4.498874E0,-9.299648E0,7.460646E0,1.7108686E1,2.9493658E1],"categories":[4,6,8,9,10],"categories_nodes":[3],"categories_segments":[0],"categories_sizes":[5],"default_left":[0,0,0,0,0,0,0,0,0,0,0,0,0,0,0],"id":1,"left_children":[1,3,5,7,9,11,13,-1,-1,-1,-1,-1,-1,-1,-1],"loss_changes":[8.78624E6,1.2088495E6,1.086598E6,1.0582625E5,4.4772234E5,2.3817384E5,4.385E5,0E0,0E0,0E0,0E0,0E0,0E0,0E0,0E0],"parents":[2147483647,0,0,1,1,2,2,3,3,4,4,5,5,6,6],"right_children":[2,4,6,8,10,12,14,-1,-1,-1,-1,-1,-1,-1,-1],"split_conditions":[2.5E0,6E0,1E0,NaN,2.5E1,1E0,2.48E3,-9.163333E0,-1.4064728E1,-4.9445944E0,4.498874E0,-9.299648E0,7.460646E0,1.7108686E1,2.9493658E1],"split_indices":[6,10,2,4,18,1,22,0,0,0,0,0,0,0,0],"split_type":[0,0,0,1,0,0,0,0,0,0,0,0,0,0,0],"sum_hessian":[7.67E2,5.29E2,2.38E2,2.32E2,2.97E2,6.8E1,1.7E2,7.3E1,1.59E2,2.34E2,6.3E1,9E0,5.9E1,1.3E2,4E1],"tree_param":{"num_deleted":"0","num_feature":"23","num_nodes":"15","size_leaf_vector":"1"}},{"base_weights":[5.8228653E-2,-5.4040363E1,1.7329166E2,-9.886481E1,2.9343724E0,2.0920685E2,9.982481E1,-1.2578903E1,-6.2712026E0,-2.0746343E0,8.5358E0,1.8156466E1,3.1451395E1,5.9988837E0,2.0174421E1],"categories":[2,3,4,5,9,10,12,13,14,15,17,18,19,21,22,26,27,28,30,33,34],"categories_nodes":[2],"categories_segments":[0],"categories_sizes":[21],"default_left":[1,0,1,0,0,0,0,0,0,0,0,0,0,0,0],"id":2,"left_children":[1,3,5,7,9,11,13,-1,-1,-1,-1,-1,-1,-1,-1],"loss_changes":[7.2068185E6,1.4968528E6,4.619755E5,3.1138175E5,5.073001E5,2.980275E5,2.3962125E5,0E0,0E0,0E0,0E0,0E0,0E0,0E0,0E0],"parents":[2147483647,0,0,1,1,2,2,3,3,4,4,5,5,6,6],"right_children":[2,4,6,8,10,12,14,-1,-1,-1,-1,-1,-1,-1,-1],"split_conditions":[2.7E0,1E0,NaN,1.28E2,2.5E1,1.116E3,2.48E3,-1.2578903E1,-6.2712026E0,-2.0746343E0,8.5358E0,1.8156466E1,3.1451395E1,5.9988837E0,2.0174421E1],"split_indices":[6,1,0,11,18,21,22,0,0,0,0,0,0,0,0],"split_type":[0,0,1,0,0,0,0,0,0,0,0,0,0,0,0],"sum_hessian":[7.67E2,5.85E2,1.82E2,3.27E2,2.58E2,1.21E2,6.1E1,1.86E2,1.41E2,2.01E2,5.7E1,9.8E1,2.3E1,4.5E1,1.6E1],"tree_param":{"num_deleted":"0","num_feature":"23","num_nodes":"15","size_leaf_vector":"1"}},{"base_weights":[1.3495381E-1,-5.479644E1,1.3986765E2,-1.03315E2,-1.929762E1,4.4847633E1,1.718507E2,-1.3353065E1,-8.951976E0,-3.8687255E0,3.7451408E0,-7.8879104E0,7.021827E0,2.03141E1,8.598166E0],"categories":[1,4,5,6,8,9,10],"categories_nodes":[6],"categories_segments":[0],"categories_sizes":[7],"default_left":[0,0,0,0,0,0,0,0,0,0,0,0,0,0,0],"id":3,"left_children":[1,3,5,7,9,11,13,-1,-1,-1,-1,-1,-1,-1,-1],"loss_changes":[5.902611E6,9.487445E5,6.517625E5,8.516825E4,3.5355862E5,1.8132422E5,4.17806E5,0E0,0E0,0E0,0E0,0E0,0E0,0E0,0E0],"parents":[2147483647,0,0,1,1,2,2,3,3,4,4,5,5,6,6],"right_children":[2,4,6,8,10,12,14,-1,-1,-1,-1,-1,-1,-1,-1],"split_conditions":[2.6E0,6E0,1E0,4E0,1E0,1E0,NaN,-1.3353065E1,-8.951976E0,-3.8687255E0,3.7451408E0,-7.8879104E0,7.021827E0,2.03141E1,8.598166E0],"split_indices":[6,10,2,10,2,1,4,0,0,0,0,0,0,0,0],"split_type":[0,0,0,0,0,0,1,0,0,0,0,0,0,0,0],"sum_hessian":[7.67E2,5.51E2,2.16E2,2.32E2,3.19E2,5.5E1,1.61E2,7E1,1.62E2,2.38E2,8.1E1,9E0,4.6E1,1.17E2,4.4E1],"tree_param":{"num_deleted":"0","num_feature":"23","num_nodes":"15","size_leaf_vector":"1"}},{"base_weights":[1.2877238E-1,-5.3027782E1,1.1800679E2,-2.053561E1,-9.499585E1,3.756995E1,1.4977365E2,3.5338056E0,-3.998678E0,-1.0813296E1,-5.5752854E0,-2.454994E0,6.916359E0,1.741767E1,7.7574563E0],"categories":[4,6,8,9,10,1,4,5,6,8,9,10],"categories_nodes":[1,6],"categories_segments":[0,5],"categories_sizes":[5,7],"default_left":[0,0,0,0,0,0,0,0,0,0,0,0,0,0,0],"id":4,"left_children":[1,3,5,7,9,11,13,-1,-1,-1,-1,-1,-1,-1,-1],"loss_changes":[4.8185375E6,7.20775E5,6.05072E5,3.2745547E5,1.13061125E5,1.371169E5,2.877695E5,0E0,0E0,0E0,0E0,0E0,0E0,0E0,0E0],"parents":[2147483647,0,0,1,1,2,2,3,3,4,4,5,5,6,6],"right_children":[2,4,6,8,10,12,14,-1,-1,-1,-1,-1,-1,-1,-1],"split_conditions":[2.5E0,NaN,1E0,4.78E3,1.6E1,8E0,NaN,3.5338056E0,-3.998678E0,-1.0813296E1,-5.5752854E0,-2.454994E0,6.916359E0,1.741767E1,7.7574563E0],"split_indices":[6,4,2,7,18,10,4,0,0,0,0,0,0,0,0],"split_type":[0,1,0,0,0,0,1,0,0,0,0,0,0,0,0],"sum_hessian":[7.67E2,5.29E2,2.38E2,2.99E2,2.3E2,6.8E1,1.7E2,7.7E1,2.22E2,1.71E2,5.9E1,2.3E1,4.5E1,1.26E2,4.4E1],"tree_param":{"num_deleted":"0","num_feature":"23","num_nodes":"15","size_leaf_vector":"1"}},{"base_weights":[1.3253959E-1,-3.9932957E1,1.2842897E2,-6.609978E1,2.041627E1,9.3489746E1,1.9677483E2,-8.593337E0,-2.7792423E0,1.17206745E1,6.723234E-1,1.4500076E1,5.1075315E0,1.5990125E1,2.7597834E1],"categories":[0,1,2,3,4,5,7,8,9,10,11,12,13,14,15,16,17,19,20,21,22,23,24,25,26,27,28,30,31,32,33,34,2,3,4,5,7,8,9,10,11,12,13,14,15,16,17,18,19,21,22,25,26,27,28,30,31,32,33],"categories_nodes":[4,5],"categories_segments":[0,32],"categories_sizes":[32,27],"default_left":[1,0,0,0,1,1,0,0,0,0,0,0,0,0,0],"id":5,"left_children":[1,3,5,7,9,11,13,-1,-1,-1,-1,-1,-1,-1,-1],"loss_changes":[3.9528485E6,9.267299E5,4.1859875E5,3.0835862E5,2.3512522E5,2.6132575E5,1.3402225E5,0E0,0E0,0E0,0E0,0E0,0E0,0E0,0E0],"parents":[2147483647,0,0,1,1,2,2,3,3,4,4,5,5,6,6],"right_children":[2,4,6,8,10,12,14,-1,-1,-1,-1,-1,-1,-1,-1],"split_conditions":[2.7E0,8E0,2.56E2,1E0,NaN,NaN,1.116E3,-8.593337E0,-2.7792423E0,1.17206745E1,6.723234E-1,1.4500076E1,5.1075315E0,1.5990125E1,2.7597834E1],"split_indices":[6,10,11,1,0,0,21,0,0,0,0,0,0,0,0],"split_type":[0,0,0,0,1,1,0,0,0,0,0,0,0,0,0],"sum_hessian":[7.67E2,5.85E2,1.82E2,4.08E2,1.77E2,1.22E2,6E1,2.68E2,1.4E2,2.1E1,1.56E2,5.4E1,6.8E1,4.3E1,1.7E1],"tree_param":{"num_deleted":"0","num_feature":"23","num_nodes":"15","size_leaf_vector":"1"}},{"base_weights":[2.0289813E-1,-4.338445E1,9.686018E1,-7.2644684E1,-9.819809E0,1.179428E2,5.8408737E0,1.5772037E1,-7.567617E0,3.2710137E0,-2.9162006E0,1.620296E1,6.519775E0,-1.5286763E0,1.2573582E1],"categories":[2,3,5,7,9,10,11,12,13,14,15,17,19,20,21,24,25,26,27,28,29,30,31,32,33,4,10,11,14,20,25,26,27,28,31,33,2,3,4,5,8,9,10,11,12,13,14,15,17,18,19,21,22,26,27,28,30,33],"categories_nodes":[3,4,5],"categories_segments":[0,25,36],"categories_sizes":[25,11,22],"default_left":[0,1,0,1,1,1,0,0,0,0,0,0,0,0,0],"id":6,"left_children":[1,3,5,7,9,11,13,-1,-1,-1,-1,-1,-1,-1,-1],"loss_changes":[3.239813E6,5.1980462E5,4.57934E5,2.0956812E5,2.049643E5,4.40556E5,1.1844454E5,0E0,0E0,0E0,0E0,0E0,0E0,0E0,0E0],"parents":[2147483647,0,0,1,1,2,2,3,3,4,4,5,5,6,6],"right_children":[2,4,6,8,10,12,14,-1,-1,-1,-1,-1,-1,-1,-1],"split_conditions":[2.5E0,2.5E1,1E0,NaN,NaN,NaN,2.532E3,1.5772037E1,-7.567617E0,3.2710137E0,-2.9162006E0,1.620296E1,6.519775E0,-1.5286763E0,1.2573582E1],"split_indices":[6,9,19,0,0,0,22,0,0,0,0,0,0,0,0],"split_type":[0,0,0,1,1,1,0,0,0,0,0,0,0,0,0],"sum_hessian":[7.67E2,5.29E2,2.38E2,2.82E2,2.47E2,1.93E2,4.5E1,3E0,2.79E2,7.7E1,1.7E2,1.04E2,8.9E1,3.9E1,6E0],"tree_param":{"num_deleted":"0","num_feature":"23","num_nodes":"15","size_leaf_vector":"1"}},{"base_weights":[2.3771676E-1,-3.503599E1,9.793089E1,-6.2105347E1,5.7339096E-1,6.720074E1,1.6722899E2,-8.613771E0,-4.4423666E0,4.691362E0,-2.014679E0,8.835361E0,-1.5420221E0,1.8047504E1,1.3519969E0],"categories":[1,2,3,4,5,6,9,10,12,13,14,15,17,18,19,21,22,26,27,28,30,34],"categories_nodes":[6],"categories_segments":[0],"categories_sizes":[22],"default_left":[0,0,0,0,0,0,1,0,0,0,0,0,0,0,0],"id":7,"left_children":[1,3,5,7,9,11,13,-1,-1,-1,-1,-1,-1,-1,-1],"loss_changes":[2.6499595E6,5.44652E5,4.2318875E5,1.3257675E5,2.3618873E5,2.5127931E5,1.23794375E5,0E0,0E0,0E0,0E0,0E0,0E0,0E0,0E0],"parents":[2147483647,0,0,1,1,2,2,3,3,4,4,5,5,6,6],"right_children":[2,4,6,8,10,12,14,-1,-1,-1,-1,-1,-1,-1,-1],"split_conditions":[2.7E0,1E0,2.56E2,4.8E1,5E3,1E0,NaN,-8.613771E0,-4.4423666E0,4.691362E0,-2.014679E0,8.835361E0,-1.5420221E0,1.8047504E1,1.3519969E0],"split_indices":[6,1,11,17,7,19,0,0,0,0,0,0,0,0,0],"split_type":[0,0,0,0,0,0,1,0,0,0,0,0,0,0,0],"sum_hessian":[7.67E2,5.64E2,2.03E2,3.2E2,2.44E2,1.42E2,6.1E1,1.34E2,1.86E2,7.5E1,1.69E2,1.13E2,2.9E1,5.6E1,5E0],"tree_param":{"num_deleted":"0","num_feature":"23","num_nodes":"15","size_leaf_vector":"1"}},{"base_weights":[2.3518424E-1,-3.7875397E1,7.44112E1,-5.3138916E1,2.3400368E1,2.0204496E1,1.0905824E2,-7.9393106E0,-3.782999E0,1.651224E0,1.537276E1,8.777222E0,-3.7504765E-1,1.3169627E1,4.285954E0],"categories":[0,1,2,3,4,5,8,9,10,11,12,13,14,15,16,17,19,20,22,23,24,25,26,27,28,30,31,32,33,34,1,4,5,6,8,9,10],"categories_nodes":[5,6],"categories_segments":[0,30],"categories_sizes":[30,7],"default_left":[0,1,0,0,0,1,0,0,0,0,0,0,0,0,0],"id":8,"left_children":[1,3,5,7,9,11,13,-1,-1,-1,-1,-1,-1,-1,-1],"loss_changes":[2.1738708E6,4.7636762E5,4.87981E5,1.605795E5,8.902809E4,1.6704322E5,2.3263438E5,0E0,0E0,0E0,0E0,0E0,0E0,0E0,0E0],"parents":[2147483647,0,0,1,1,2,2,3,3,4,4,5,5,6,6],"right_children":[2,4,6,8,10,12,14,-1,-1,-1,-1,-1,-1,-1,-1],"split_conditions":[1E0,4E1,2.7E0,4.8E1,6.74E0,NaN,NaN,-7.9393106E0,-3.782999E0,1.651224E0,1.537276E1,8.777222E0,-3.7504765E-1,1.3169627E1,4.285954E0],"split_indices":[2,9,6,17,12,0,4,0,0,0,0,0,0,0,0],"split_type":[0,0,0,0,0,1,1,0,0,0,0,0,0,0,0],"sum_hessian":[7.67E2,5.07E2,2.6E2,4.06E2,1.01E2,1.02E2,1.58E2,1.48E2,2.58E2,9.7E1,4E0,2.6E1,7.6E1,1.17E2,4.1E1],"tree_param":{"num_deleted":"0","num_feature":"23","num_nodes":"15","size_leaf_vector":"1"}},{"base_weights":[2.5224352E-1,7.0390594E1,-3.333372E1,2.0000099E2,5.4382202E1,-5.61438E1,-7.5014157E0,1.0575365E1,2.1179386E1,3.865954E0,1.5822833E1,-3.8049793E0,-7.1089096E0,3.2641149E0,-2.7162302E0],"categories":[2,3,4,5,6,7,8,9,10,11,12,13,14,15,17,19,20,21,22,24,25,26,27,28,30,31,32,33,2,5,9,10,12,14,19,20,26,27,28,31,33,4,7,10,11,14,20,25,26,27,28,31,33,34],"categories_nodes":[1,5,6],"categories_segments":[0,28,41],"categories_sizes":[28,13,13],"default_left":[0,1,1,0,0,1,1,0,0,0,0,0,0,0,0],"id":9,"left_children":[1,3,5,7,9,11,13,-1,-1,-1,-1,-1,-1,-1,-1],"loss_changes":[1.8114964E6,5.0576212E5,3.0598206E5,7.611125E3,3.5798344E5,7.193106E4,1.9425002E5,0E0,0E0,0E0,0E0,0E0,0E0,0E0,0E0],"parents":[2147483647,0,0,1,1,2,2,3,3,4,4,5,5,6,6],"right_children":[2,4,6,8,10,12,14,-1,-1,-1,-1,-1,-1,-1,-1],"split_conditions":[1E0,NaN,2.2E1,1.28E2,2.48E3,NaN,NaN,1.0575365E1,2.1179386E1,3.865954E0,1.5822833E1,-3.8049793E0,-7.1089096E0,3.2641149E0,-2.7162302E0],"split_indices":[19,0,9,11,22,0,0,0,0,0,0,0,0,0,0],"split_type":[0,1,0,0,0,1,1,0,0,0,0,0,0,0,0],"sum_hessian":[7.67E2,2.48E2,5.19E2,2.6E1,2.22E2,2.75E2,2.44E2,4E0,2.2E1,1.94E2,2.8E1,1.26E2,1.49E2,8E1,1.64E2],"tree_param":{"num_deleted":"0","num_feature":"23","num_nodes":"15","size_leaf_vector":"1"}},{"base_weights":[2.805007E-1,-3.141702E1,6.197422E1,-4.823991E1,9.439741E0,4.0021667E1,1.2130158E2,-6.6192703E0,-3.5682435E0,-8.513818E-1,4.625341E0,9.753693E0,1.6808909E0,9.326579E0,1.9711246E1],"categories":[2,3,4,5,7,8,9,10,11,12,13,14,15,16,17,19,20,22,24,25,26,27,28,30,31,32,33],"categories_nodes":[5],"categories_segments":[0],"categories_sizes":[27],"default_left":[0,0,0,0,1,1,0,0,0,0,0,0,0,0,0],"id":10,"left_children":[1,3,5,7,9,11,13,-1,-1,-1,-1,-1,-1,-1,-1],"loss_changes":[1.5038002E6,3.4961834E5,3.3506825E5,7.8797125E4,9.8873305E4,2.5469734E5,1.303955E5,0E0,0E0,0E0,0E0,0E0,0E0,0E0,0E0],"parents":[2147483647,0,0,1,1,2,2,3,3,4,4,5,5,6,6],"right_children":[2,4,6,8,10,12,14,-1,-1,-1,-1,-1,-1,-1,-1],"split_conditions":[1E0,8E0,2.56E2,4.8E1,6.5E1,NaN,1.116E3,-6.6192703E0,-3.5682435E0,-8.513818E-1,4.625341E0,9.753693E0,1.6808909E0,9.326579E0,1.9711246E1],"split_indices":[2,10,11,17,9,0,21,0,0,0,0,0,0,0,0],"split_type":[0,0,0,0,0,1,0,0,0,0,0,0,0,0,0],"sum_hessian":[7.67E2,5.07E2,2.6E2,3.59E2,1.48E2,1.91E2,6.9E1,1.46E2,2.13E2,1E2,4.8E1,5.4E1,1.37E2,5.2E1,1.7E1],"tree_param":{"num_deleted":"0","num_feature":"23","num_nodes":"15","size_leaf_vector":"1"}},{"base_weights":[2.9679817E-1,5.9074352E1,-2.7849178E1,1.5662044E2,4.2919994E1,-5.2809135E1,-1.1039947E1,7.6467347E0,1.7753738E1,9.7218734E-1,8.981034E0,1.2858258E0,-5.582846E0,1.4435518E0,-2.6190913E0],"categories":[2,3,4,5,7,8,9,10,11,12,13,14,15,17,19,20,21,22,24,25,26,27,28,30,31,32,33,2,5,9,10,11,12,13,14,19,20,21,25,26,27,28,29,31,32,33,3,5,7,10,11,14,20,25,26,27,30,31,33,34],"categories_nodes":[1,5,6],"categories_segments":[0,27,46],"categories_sizes":[27,19,14],"default_left":[0,1,0,0,1,1,1,0,0,0,0,0,0,0,0],"id":11,"left_children":[1,3,5,7,9,11,13,-1,-1,-1,-1,-1,-1,-1,-1],"loss_changes":[1.2721872E6,3.8565075E5,2.1758697E5,4.510375E4,3.3381122E5,4.2156562E4,1.2080319E5,0E0,0E0,0E0,0E0,0E0,0E0,0E0,0E0],"parents":[2147483647,0,0,1,1,2,2,3,3,4,4,5,5,6,6],"right_children":[2,4,6,8,10,12,14,-1,-1,-1,-1,-1,-1,-1,-1],"split_conditions":[1E0,NaN,1.28E2,1E1,6.8E1,NaN,NaN,7.6467347E0,1.7753738E1,9.7218734E-1,8.981034E0,1.2858258E0,-5.582846E0,1.4435518E0,-2.6190913E0],"split_indices":[19,0,11,18,9,0,0,0,0,0,0,0,0,0,0],"split_type":[0,1,0,0,0,1,1,0,0,0,0,0,0,0,0],"sum_hessian":[7.67E2,2.48E2,5.19E2,3.4E1,2.14E2,2.08E2,3.11E2,8E0,2.6E1,1.26E2,8.8E1,9E0,1.99E2,1.16E2,1.95E2],"tree_param":{"num_deleted":"0","num_feature":"23","num_nodes":"15","size_leaf_vector":"1"}},{"base_weights":[3.0602172E-1,-3.2787956E1,4.3179096E1,1.2455902E2,-3.7557438E1,1.092326E1,7.6346176E1,6.6732917E0,1.8090065E1,-2.4490087E0,-5.10115E0,-3.7760946E-1,3.6826577E0,1.2349849E1,4.8225827E0],"categories":[1,2,3,4,5,6,7,9,10,11,12,13,14,15,16,17,19,20,21,22,23,24,25,26,27,28,29,31,32,33,34,4,6,8,9,10,0,2,3,4,5,9,10,11,12,13,14,15,17,18,19,21,22,24,25,26,27,28,30,33],"categories_nodes":[1,4,6],"categories_segments":[0,31,36],"categories_sizes":[31,5,24],"default_left":[0,1,0,0,0,0,1,0,0,0,0,0,0,0,0],"id":12,"left_children":[1,3,5,7,9,11,13,-1,-1,-1,-1,-1,-1,-1,-1],"loss_changes":[1.0910854E6,3.3037956E5,3.5755975E5,3.0282188E4,7.2942125E4,6.5249367E4,2.1282419E5,0E0,0E0,0E0,0E0,0E0,0E0,0E0,0E0],"parents":[2147483647,0,0,1,1,2,2,3,3,4,4,5,5,6,6],"right_children":[2,4,6,8,10,12,14,-1,-1,-1,-1,-1,-1,-1,-1],"split_conditions":[8E0,NaN,2.73E0,1.28E2,NaN,2.5E1,NaN,6.6732917E0,1.8090065E1,-2.4490087E0,-5.10115E0,-3.7760946E-1,3.6826577E0,1.2349849E1,4.8225827E0],"split_indices":[10,0,6,11,4,18,0,0,0,0,0,0,0,0,0],"split_type":[0,1,0,0,1,0,1,0,0,0,0,0,0,0,0],"sum_hessian":[7.67E2,4.33E2,3.34E2,1.2E1,4.21E2,1.7E2,1.64E2,7E0,5E0,2.15E2,2.06E2,1.09E2,6.1E1,6E1,1.04E2],"tree_param":{"num_deleted":"0","num_feature":"23","num_nodes":"15","size_leaf_vector":"1"}},{"base_weights":[3.2449797E-1,-2.3990992E1,4.7649952E1,-3.2330357E1,2.4586008E1,3.392159E1,1.1842591E2,-1.5593407E0,-4.336445E0,1.6696001E0,1.31706915E1,5.966665E0,-5.815619E-2,1.4067963E1,-7.438756E0],"categories":[5,7,9,10,11,12,13,14,15,17,19,20,21,26,27,28,31,33,2,3,4,5,8,9,10,11,12,13,14,15,17,19,24,26,27,28,30,31,33,34],"categories_nodes":[3,5],"categories_segments":[0,18],"categories_sizes":[18,22],"default_left":[0,1,0,1,0,1,1,0,0,0,0,0,0,0,0],"id":13,"left_children":[1,3,5,7,9,11,13,-1,-1,-1,-1,-1,-1,-1,-1],"loss_changes":[8.849126E5,2.0658634E5,2.4958038E5,7.9473625E4,6.118987E4,1.9545755E5,1.9067912E5,0E0,0E0,0E0,0E0,0E0,0E0,0E0,0E0],"parents":[2147483647,0,0,1,1,2,2,3,3,4,4,5,5,6,6],"right_children":[2,4,6,8,10,12,14,-1,-1,-1,-1,-1,-1,-1,-1],"split_conditions":[1E0,6.5E1,2.48E3,NaN,6.74E0,NaN,5.5E3,-1.5593407E0,-4.336445E0,1.6696001E0,1.31706915E1,5.966665E0,-5.815619E-2,1.4067963E1,-7.438756E0],"split_indices":[2,9,22,0,12,0,7,0,0,0,0,0,0,0,0],"split_type":[0,0,0,1,0,1,0,0,0,0,0,0,0,0,0],"sum_hessian":[7.67E2,5.07E2,2.6E2,4.33E2,7.4E1,2.19E2,4.1E1,1.73E2,2.6E2,7E1,4E0,1.25E2,9.4E1,3.7E1,4E0],"tree_param":{"num_deleted":"0","num_feature":"23","num_nodes":"15","size_leaf_vector":"1"}},{"base_weights":[3.2001865E-1,-2.7820557E1,3.677581E1,1.27680046E2,-3.1413935E1,2.4752926E1,1.0324142E2,6.399034E0,1.5947479E1,-2.7434738E0,-6.704721E0,7.7460504E0,1.0650238E0,4.484159E0,1.31122465E1],"categories":[1,2,3,4,5,6,7,8,9,10,11,12,13,14,15,16,17,19,20,21,22,23,24,25,26,27,28,29,30,31,32,33,34,2,5,9,12,14,17,19,31,34,0,2,3,4,5,7,9,10,11,12,13,14,15,16,17,19,21,22,23,24,25,26,27,28,30,31,32,33],"categories_nodes":[1,4,5],"categories_segments":[0,33,42],"categories_sizes":[33,9,28],"default_left":[0,1,0,0,1,1,0,0,0,0,0,0,0,0,0],"id":14,"left_children":[1,3,5,7,9,11,13,-1,-1,-1,-1,-1,-1,-1,-1],"loss_changes":[7.889043E5,2.4651822E5,2.6514572E5,1.0045141E4,5.8422094E4,2.1102084E5,7.716094E4,0E0,0E0,0E0,0E0,0E0,0E0,0E0,0E0],"parents":[2147483647,0,0,1,1,2,2,3,3,4,4,5,5,6,6],"right_children":[2,4,6,8,10,12,14,-1,-1,-1,-1,-1,-1,-1,-1],"split_conditions":[8E0,NaN,1.2E1,5.5E0,NaN,NaN,6.64E0,6.399034E0,1.5947479E1,-2.7434738E0,-6.704721E0,7.7460504E0,1.0650238E0,4.484159E0,1.31122465E1],"split_indices":[10,0,10,12,0,0,12,0,0,0,0,0,0,0,0],"split_type":[0,1,0,0,1,1,0,0,0,0,0,0,0,0,0],"sum_hessian":[7.67E2,4.33E2,3.34E2,9E0,4.24E2,2.84E2,5E1,4E0,5E0,3.83E2,4.1E1,5.9E1,2.25E2,1.7E1,3.3E1],"tree_param":{"num_deleted":"0","num_feature":"23","num_nodes":"15","size_leaf_vector":"1"}},{"base_weights":[3.391919E-1,4.223695E1,-1.9724041E1,1.172332E2,2.9831806E1,-2.326872E1,4.339209E1,7.1316805E0,1.4810466E1,5.487493E-1,6.925018E0,-9.4881004E-1,-3.4615352E0,2.346483E0,1.125479E1],"categories":[2,3,4,5,7,8,9,10,11,12,13,14,15,17,19,20,21,22,24,25,26,27,28,30,31,32,33,2,3,5,7,9,10,12,13,14,19,20,26,27,28,31,33,34],"categories_nodes":[1,5],"categories_segments":[0,27],"categories_sizes":[27,17],"default_left":[0,1,0,0,1,1,0,0,0,0,0,0,0,0,0],"id":15,"left_children":[1,3,5,7,9,11,13,-1,-1,-1,-1,-1,-1,-1,-1],"loss_changes":[6.464173E5,2.2815716E5,1.17347484E5,3.9050375E4,2.0593683E5,7.675884E4,3.594548E4,0E0,0E0,0E0,0E0,0E0,0E0,0E0,0E0],"parents":[2147483647,0,0,1,1,2,2,3,3,4,4,5,5,6,6],"right_children":[2,4,6,8,10,12,14,-1,-1,-1,-1,-1,-1,-1,-1],"split_conditions":[1E0,NaN,2.56E2,2E1,8E1,NaN,4E0,7.1316805E0,1.4810466E1,5.487493E-1,6.925018E0,-9.4881004E-1,-3.4615352E0,2.346483E0,1.125479E1],"split_indices":[19,0,11,17,9,0,14,0,0,0,0,0,0,0,0],"split_type":[0,1,0,0,0,1,0,0,0,0,0,0,0,0,0],"sum_hessian":[7.67E2,2.48E2,5.19E2,3.4E1,2.14E2,4.92E2,2.7E1,1.5E1,1.9E1,1.33E2,8.1E1,2.23E2,2.69E2,2.2E1,5E0],"tree_param":{"num_deleted":"0","num_feature":"23","num_nodes":"15","size_leaf_vector":"1"}},{"base_weights":[3.555439E-1,-2.3095846E1,3.0736282E1,9.5483696E1,-2.669404E1,2.1992798E1,1.0505208E2,4.7573624E0,1.4344985E1,-4.6311235E0,-2.0214787E0,7.5744486E0,9.125624E-1,1.2985356E1,-6.972758E0],"categories":[1,2,3,4,5,6,7,9,10,11,12,13,14,15,16,17,19,20,21,22,23,24,25,26,27,28,29,31,32,33,34,0,2,3,4,5,7,8,9,10,11,12,13,14,15,17,19,21,22,24,25,26,27,28,30,31,32,33,34],"categories_nodes":[1,5],"categories_segments":[0,31],"categories_sizes":[31,28],"default_left":[0,1,0,0,0,1,0,0,0,0,0,0,0,0,0],"id":16,"left_children":[1,3,5,7,9,11,13,-1,-1,-1,-1,-1,-1,-1,-1],"loss_changes":[5.478873E5,1.8772464E5,2.153656E5,2.3050375E4,5.2702062E4,2.074901E5,1.6077222E5,0E0,0E0,0E0,0E0,0E0,0E0,0E0,0E0],"parents":[2147483647,0,0,1,1,2,2,3,3,4,4,5,5,6,6],"right_children":[2,4,6,8,10,12,14,-1,-1,-1,-1,-1,-1,-1,-1],"split_conditions":[8E0,NaN,2.48E3,1.28E2,7E0,NaN,5.02E3,4.7573624E0,1.4344985E1,-4.6311235E0,-2.0214787E0,7.5744486E0,9.125624E-1,1.2985356E1,-6.972758E0],"split_indices":[10,0,22,11,18,0,7,0,0,0,0,0,0,0,0],"split_type":[0,1,0,0,0,1,0,0,0,0,0,0,0,0,0],"sum_hessian":[7.67E2,4.33E2,3.34E2,1.2E1,4.21E2,3E2,3.4E1,7E0,5E0,1.03E2,3.18E2,5.7E1,2.43E2,3E1,4E0],"tree_param":{"num_deleted":"0","num_feature":"23","num_nodes":"15","size_leaf_vector":"1"}},{"base_weights":[3.550793E-1,-9.131475E0,6.3094326E1,-2.8099442E1,9.14015E0,3.638738E1,9.30047E1,-1.5587223E0,-3.7450435E0,3.5359552E0,-7.38414E-1,7.7675104E0,1.5872475E0,1.10796E1,1.6097275E0],"categories":[5,9,10,12,14,15,17,19,20,21,26,27,31,33,0,1,2,3,4,5,6,7,9,10,11,12,13,14,15,16,17,18,19,21,22,23,24,25,26,27,28,30,32,34,1,2,3,4,5,6,8,9,12,13,14,15,17,18,19,21,22,26,27,28,29,30,31,33,34],"categories_nodes":[3,5,6],"categories_segments":[0,14,44],"categories_sizes":[14,30,25],"default_left":[0,0,0,1,1,1,1,0,0,0,0,0,0,0,0],"id":17,"left_children":[1,3,5,7,9,11,13,-1,-1,-1,-1,-1,-1,-1,-1],"loss_changes":[4.576738E5,2.3176934E5,7.7296125E4,3.779278E4,1.4800172E5,4.5352867E4,6.2525812E4,0E0,0E0,0E0,0E0,0E0,0E0,0E0,0E0],"parents":[2147483647,0,0,1,1,2,2,3,3,4,4,5,5,6,6],"right_children":[2,4,6,8,10,12,14,-1,-1,-1,-1,-1,-1,-1,-1],"split_conditions":[2.56E2,1E0,8E1,NaN,5E3,NaN,NaN,-1.5587223E0,-3.7450435E0,3.5359552E0,-7.38414E-1,7.7675104E0,1.5872475E0,1.10796E1,1.6097275E0],"split_indices":[11,1,9,0,7,0,0,0,0,0,0,0,0,0,0],"split_type":[0,0,0,1,0,1,1,0,0,0,0,0,0,0,0],"sum_hessian":[7.67E2,6.67E2,1E2,3.27E2,3.4E2,5.4E1,4.6E1,1.41E2,1.86E2,1.31E2,2.09E2,1.7E1,3.7E1,3.7E1,9E0],"tree_param":{"num_deleted":"0","num_feature":"23","num_nodes":"15","size_leaf_vector":"1"}},{"base_weights":[3.4501007E-1,-2.0855013E1,2.3932001E1,-6.3473244E0,-2.9184938E1,8.828719E0,6.483653E1,8.802431E-1,-1.1987624E0,-4.4626822E0,-2.088013E0,7.5522017E0,1.6268411E-1,8.652137E0,1.5178288E0],"categories":[2,5,7,9,10,11,12,13,14,15,17,19,26,27,28,29,31,33,2,3,4,5,9,10,11,12,13,14,15,17,18,19,20,21,22,23,24,25,26,27,28,29,30,31,32,33,34,0,1,2,3,4,5,7,8,9,10,12,13,14,15,16,17,19,20,21,22,26,27,28,30,34],"categories_nodes":[1,5,6],"categories_segments":[0,18,47],"categories_sizes":[18,29,25],"default_left":[0,1,0,0,0,1,1,0,0,0,0,0,0,0,0],"id":18,"left_children":[1,3,5,7,9,11,13,-1,-1,-1,-1,-1,-1,-1,-1],"loss_changes":[3.845335E5,4.875817E4,2.2430408E5,1.2837447E4,3.202636E4,1.281218E5,1.0421622E5,0E0,0E0,0E0,0E0,0E0,0E0,0E0,0E0],"parents":[2147483647,0,0,1,1,2,2,3,3,4,4,5,5,6,6],"right_children":[2,4,6,8,10,12,14,-1,-1,-1,-1,-1,-1,-1,-1],"split_conditions":[2.36E0,NaN,6.7E0,6.47E0,4.8E1,NaN,NaN,8.802431E-1,-1.1987624E0,-4.4626822E0,-2.088013E0,7.5522017E0,1.6268411E-1,8.652137E0,1.5178288E0],"split_indices":[6,0,12,12,17,0,0,0,0,0,0,0,0,0,0],"split_type":[0,1,0,0,0,1,1,0,0,0,0,0,0,0,0],"sum_hessian":[7.67E2,4.04E2,3.63E2,1.48E2,2.56E2,2.66E2,9.7E1,4E1,1.08E2,8.8E1,1.68E2,2.5E1,2.41E2,6.7E1,3E1],"tree_param":{"num_deleted":"0","num_feature":"23","num_nodes":"15","size_leaf_vector":"1"}},{"base_weights":[3.2485023E-1,-7.707093E0,5.3443794E1,-2.350124E1,7.5075326E0,4.0948177E1,1.0878756E2,-1.8611723E0,-4.125673E0,1.8935339E1,5.333299E-1,5.875639E0,1.1769048E-1,1.339753E1,6.0555964E0],"categories":[5,9,10,12,15,17,19,26,31,0,2,3,4,5,6,7,8,9,10,11,12,13,14,15,16,17,19,20,21,22,23,24,25,26,27,28,29,30,31,32,33,34,1,2,3,4,5,6,8,9,10,11,12,13,14,15,17,18,19,21,26,27,28,30,33,34,1,2,3,4,5,6,7,9,10,12,13,14,15,16,17,18,19,20,21,22,23,25,26,27,28,30,31,33,34],"categories_nodes":[3,4,5,6],"categories_segments":[0,9,42,66],"categories_sizes":[9,33,24,29],"default_left":[0,0,0,1,1,1,1,0,0,0,0,0,0,0,0],"id":19,"left_children":[1,3,5,7,9,11,13,-1,-1,-1,-1,-1,-1,-1,-1],"loss_changes":[3.280778E5,1.6069819E5,6.5392344E4,2.7707719E4,1.3381311E5,5.942428E4,1.3754219E4,0E0,0E0,0E0,0E0,0E0,0E0,0E0,0E0],"parents":[2147483647,0,0,1,1,2,2,3,3,4,4,5,5,6,6],"right_children":[2,4,6,8,10,12,14,-1,-1,-1,-1,-1,-1,-1,-1],"split_conditions":[2.56E2,1E0,1.116E3,NaN,NaN,NaN,NaN,-1.8611723E0,-4.125673E0,1.8935339E1,5.333299E-1,5.875639E0,1.1769048E-1,1.339753E1,6.0555964E0],"split_indices":[11,1,21,0,0,0,0,0,0,0,0,0,0,0,0],"split_type":[0,0,0,1,1,1,1,0,0,0,0,0,0,0,0],"sum_hessian":[7.67E2,6.67E2,1E2,3.27E2,3.4E2,8.3E1,1.7E1,2.58E2,6.9E1,3E0,3.37E2,5.7E1,2.6E1,1E1,7E0],"tree_param":{"num_deleted":"0","num_feature":"23","num_nodes":"15","size_leaf_vector":"1"}},{"base_weights":[3.4305677E-1,2.8060322E1,-1.2929909E1,9.68535E1,1.9605272E1,1.1360236E-1,-2.1215767E1,5.630112E0,1.2121445E1,1.0808247E0,7.8081636E0,9.603169E0,-2.2969706E-1,-1.7537001E0,-3.7404428E0],"categories":[2,3,4,5,6,7,8,9,10,11,12,13,14,15,17,19,20,21,22,24,25,26,27,28,30,31,32,33,1,4,6,8,9,10,0,1,2,3,4,5,6,7,8,9,10,11,12,13,14,15,16,17,19,20,22,23,24,25,26,27,28,29,30,31,32,33,34,2,3,5,9,12,14,19,26,28,31],"categories_nodes":[1,2,5,6],"categories_segments":[0,28,34,67],"categories_sizes":[28,6,33,10],"default_left":[0,1,0,0,0,1,1,0,0,0,0,0,0,0,0],"id":20,"left_children":[1,3,5,7,9,11,13,-1,-1,-1,-1,-1,-1,-1,-1],"loss_changes":[2.829026E5,1.4293195E5,5.6202297E4,1.9848656E4,1.1387129E5,4.7157746E4,1.8282312E4,0E0,0E0,0E0,0E0,0E0,0E0,0E0,0E0],"parents":[2147483647,0,0,1,1,2,2,3,3,4,4,5,5,6,6],"right_children":[2,4,6,8,10,12,14,-1,-1,-1,-1,-1,-1,-1,-1],"split_conditions":[1E0,NaN,NaN,1.22E1,2.48E3,NaN,NaN,5.630112E0,1.2121445E1,1.0808247E0,7.8081636E0,9.603169E0,-2.2969706E-1,-1.7537001E0,-3.7404428E0],"split_indices":[19,0,4,17,22,0,0,0,0,0,0,0,0,0,0],"split_type":[0,1,1,0,0,1,1,0,0,0,0,0,0,0,0],"sum_hessian":[7.67E2,2.48E2,5.19E2,2.6E1,2.22E2,2.02E2,3.17E2,1.1E1,1.5E1,1.94E2,2.8E1,4E0,1.98E2,2.6E2,5.7E1],"tree_param":{"num_deleted":"0","num_feature":"23","num_nodes":"15","size_leaf_vector":"1"}},{"base_weights":[3.4849083E-1,-1.5464364E1,2.0833357E1,7.087873E1,-1.8087576E1,6.073066E1,1.1369164E1,3.4271722E0,1.0787495E1,-1.3412842E0,-3.3006096E0,-1.3972442E0,8.00466E0,3.972801E-1,7.3208594E0],"categories":[1,2,3,4,5,6,7,9,10,11,12,13,14,15,16,17,19,20,21,22,23,24,25,26,27,28,29,31,32,33,34,0,2,3,4,5,7,8,9,10,11,12,13,14,15,17,19,21,22,24,25,26,27,28,30,31,32,33,2,5,9,12,13,14,17,19,20,26,31,34],"categories_nodes":[1,2,4],"categories_segments":[0,31,58],"categories_sizes":[31,27,12],"default_left":[0,1,1,0,1,0,0,0,0,0,0,0,0,0,0],"id":21,"left_children":[1,3,5,7,9,11,13,-1,-1,-1,-1,-1,-1,-1,-1],"loss_changes":[2.4909598E5,9.958143E4,1.2580414E5,1.3909102E4,2.8987625E4,9.346791E4,1.24118414E5,0E0,0E0,0E0,0E0,0E0,0E0,0E0,0E0],"parents":[2147483647,0,0,1,1,2,2,3,3,4,4,5,5,6,6],"right_children":[2,4,6,8,10,12,14,-1,-1,-1,-1,-1,-1,-1,-1],"split_conditions":[8E0,NaN,NaN,2.376E3,NaN,1E0,2.48E3,3.4271722E0,1.0787495E1,-1.3412842E0,-3.3006096E0,-1.3972442E0,8.00466E0,3.972801E-1,7.3208594E0],"split_indices":[10,0,0,22,0,2,22,0,0,0,0,0,0,0,0],"split_type":[0,1,1,0,1,0,0,0,0,0,0,0,0,0,0],"sum_hessian":[7.67E2,4.33E2,3.34E2,1.2E1,4.21E2,6.3E1,2.71E2,7E0,5E0,3.22E2,9.9E1,1.3E1,5E1,2.43E2,2.8E1],"tree_param":{"num_deleted":"0","num_feature":"23","num_nodes":"15","size_leaf_vector":"1"}},{"base_weights":[3.447581E-1,-6.2676687E0,4.407502E1,-1.1761625E1,2.3983273E1,3.5738125E1,1.0292881E2,2.9250844E0,-1.5967655E0,1.0997223E0,6.8674006E0,4.280301E0,-2.5061245E0,1.1424375E1,-1.076773E0],"categories":[2,3,4,5,7,8,9,10,11,12,13,14,15,16,17,19,20,22,23,25,26,27,28,29,31,32,33,10,26,27,33],"categories_nodes":[3,5,6],"categories_segments":[0,27,30],"categories_sizes":[27,3,1],"default_left":[0,0,0,1,0,1,1,0,0,0,0,0,0,0,0],"id":22,"left_children":[1,3,5,7,9,11,13,-1,-1,-1,-1,-1,-1,-1,-1],"loss_changes":[2.2235356E5,1.11301914E5,4.587797E4,9.810189E4,5.902144E4,3.9731344E4,1.6667773E4,0E0,0E0,0E0,0E0,0E0,0E0,0E0,0E0],"parents":[2147483647,0,0,1,1,2,2,3,3,4,4,5,5,6,6],"right_children":[2,4,6,8,10,12,14,-1,-1,-1,-1,-1,-1,-1,-1],"split_conditions":[2.56E2,2.5E1,1.25E2,NaN,3.2E0,NaN,NaN,2.9250844E0,-1.5967655E0,1.0997223E0,6.8674006E0,4.280301E0,-2.5061245E0,1.1424375E1,-1.076773E0],"split_indices":[11,18,9,0,6,0,0,0,0,0,0,0,0,0,0],"split_type":[0,0,0,1,0,1,1,0,0,0,0,0,0,0,0],"sum_hessian":[7.67E2,6.67E2,1E2,5.65E2,1.02E2,8.9E1,1.1E1,5.2E1,5.13E2,8E1,2.2E1,8E1,9E0,1E1,1E0],"tree_param":{"num_deleted":"0","num_feature":"23","num_nodes":"15","size_leaf_vector":"1"}},{"base_weights":[3.3817184E-1,-5.626984E0,3.978754E1,1.5825368E1,-6.604271E0,2.067214E1,6.1310078E1,-1.4912586E0,9.930205E-1,5.2044086E0,2.669057E-1,7.7876434E0,1.1992178E0],"categories":[0,2,3,4,5,6,7,8,9,10,11,12,13,14,15,16,17,19,20,21,22,23,24,25,26,27,28,29,30,31,32,33,34,0,1,2,3,4,5,6,7,9,10,11,12,13,14,15,16,17,18,19,21,23,24,25,26,27,28,30,32,34],"categories_nodes":[1,5],"categories_segments":[0,33],"categories_sizes":[33,29],"default_left":[0,1,0,0,0,1,0,0,0,0,0,0,0],"id":23,"left_children":[1,3,5,-1,7,9,11,-1,-1,-1,-1,-1,-1],"loss_changes":[1.8095089E5,1.0803096E5,4.0285188E4,0E0,9.150155E4,3.0924643E4,3.7465953E4,0E0,0E0,0E0,0E0,0E0,0E0],"parents":[2147483647,0,0,1,1,2,2,4,4,5,5,6,6],"right_children":[2,4,6,-1,8,10,12,-1,-1,-1,-1,-1,-1],"split_conditions":[2.56E2,NaN,8E1,1.5825368E1,1.2E2,NaN,1E0,-1.4912586E0,9.930205E-1,5.2044086E0,2.669057E-1,7.7876434E0,1.1992178E0],"split_indices":[11,0,9,0,13,0,3,0,0,0,0,0,0],"split_type":[0,1,0,0,0,1,0,0,0,0,0,0,0],"sum_hessian":[7.67E2,6.67E2,1E2,3E0,6.64E2,5.4E1,4.6E1,4.42E2,2.22E2,1.9E1,3.5E1,3.4E1,1.2E1],"tree_param":{"num_deleted":"0","num_feature":"23","num_nodes":"13","size_leaf_vector":"1"}},{"base_weights":[3.4313828E-1,-3.827911E0,5.0531303E1,1.0047725E1,-1.6180332E1,2.0470428E1,8.789817E1,5.127608E-1,7.3590584E0,-1.9205109E0,1.0449289E0,3.1922889E0,-5.233842E0,7.133606E0,1.3121585E1],"categories":[2,3,5,9,10,11,12,13,14,15,17,19,20,23,26,27,28,31,33],"categories_nodes":[1],"categories_segments":[0],"categories_sizes":[19],"default_left":[1,1,0,0,0,0,0,0,0,0,0,0,0,0,0],"id":24,"left_children":[1,3,5,7,9,11,13,-1,-1,-1,-1,-1,-1,-1,-1],"loss_changes":[1.609645E5,1.2185494E5,6.4474234E4,1.04356484E5,3.0486984E4,3.0021365E4,9.2928125E3,0E0,0E0,0E0,0E0,0E0,0E0,0E0,0E0],"parents":[2147483647,0,0,1,1,2,2,3,3,4,4,5,5,6,6],"right_children":[2,4,6,8,10,12,14,-1,-1,-1,-1,-1,-1,-1,-1],"split_conditions":[1.2E2,NaN,3.2E0,2.46E3,1.08E2,3.1E0,2E2,5.127608E-1,7.3590584E0,-1.9205109E0,1.0449289E0,3.1922889E0,-5.233842E0,7.133606E0,1.3121585E1],"split_indices":[9,0,6,22,17,6,17,0,0,0,0,0,0,0,0],"split_type":[0,1,0,0,0,0,0,0,0,0,0,0,0,0,0],"sum_hessian":[7.67E2,7.09E2,5.8E1,3.34E2,3.75E2,3.3E1,2.5E1,3.11E2,2.3E1,3.37E2,3.8E1,2.9E1,4E0,2E1,5E0],"tree_param":{"num_deleted":"0","num_feature":"23","num_nodes":"15","size_leaf_vector":"1"}},{"base_weights":[3.4165245E-1,-3.2369792E0,5.0716473E1,9.382446E0,-1.41153E1,8.6165794E1,3.204919E1,2.8249266E0,-5.14174E-1,-1.0927142E0,-5.0272365E0,9.210353E0,-4.4190064E-1,-2.9124877E-1,5.5495667E0],"categories":[1,4,6,8,9,10,0,1,2,3,4,5,6,7,8,9,10,11,12,13,14,15,17,18,19,21,22,24,25,26,27,28,30,33,34,2,3,4,5,7,9,10,11,12,13,14,15,16,17,19,20,22,23,25,26,27,28,31,32,34,2,3,5,11,12,15,17,19,24,28],"categories_nodes":[1,2,3,4],"categories_segments":[0,6,35,60],"categories_sizes":[6,29,25,10],"default_left":[0,0,1,1,1,0,0,0,0,0,0,0,0,0,0],"id":25,"left_children":[1,3,5,7,9,11,13,-1,-1,-1,-1,-1,-1,-1,-1],"loss_changes":[1.3861378E5,9.8698164E4,3.0987312E4,9.139564E4,4.39466E4,9.550781E3,2.8852113E4,0E0,0E0,0E0,0E0,0E0,0E0,0E0,0E0],"parents":[2147483647,0,0,1,1,2,2,3,3,4,4,5,5,6,6],"right_children":[2,4,6,8,10,12,14,-1,-1,-1,-1,-1,-1,-1,-1],"split_conditions":[1.2E1,NaN,NaN,NaN,NaN,5.18E3,2.404E3,2.8249266E0,-5.14174E-1,-1.0927142E0,-5.0272365E0,9.210353E0,-4.4190064E-1,-2.9124877E-1,5.5495667E0],"split_indices":[10,4,0,0,0,7,22,0,0,0,0,0,0,0,0],"split_type":[0,1,1,1,1,0,0,0,0,0,0,0,0,0,0],"sum_hessian":[7.67E2,7.17E2,5E1,3.32E2,3.85E2,1.6E1,3.4E1,1.44E2,1.88E2,3.55E2,3E1,1.5E1,1E0,1.4E1,2E1],"tree_param":{"num_deleted":"0","num_feature":"23","num_nodes":"15","size_leaf_vector":"1"}},{"base_weights":[3.207893E-1,-3.3718507E0,4.475221E1,6.3446785E1,-5.30094E0,1.8691578E1,7.711025E1,4.3687177E-1,8.84539E0,-1.099019E0,1.9103415E0,2.8669865E0,-4.4916453E0,6.1603436E0,1.185324E1],"categories":[2,3,4,5,7,8,9,10,11,12,13,14,15,16,17,19,20,21,22,23,24,25,26,27,28,29,30,31,32,33,34],"categories_nodes":[1],"categories_segments":[0],"categories_sizes":[31],"default_left":[1,1,0,0,0,0,0,0,0,0,0,0,0,0,0],"id":26,"left_children":[1,3,5,7,9,11,13,-1,-1,-1,-1,-1,-1,-1,-1],"loss_changes":[1.2615606E5,9.185471E4,4.831168E4,2.9161016E4,9.61501E4,2.286752E4,9.398469E3,0E0,0E0,0E0,0E0,0E0,0E0,0E0,0E0],"parents":[2147483647,0,0,1,1,2,2,3,3,4,4,5,5,6,6],"right_children":[2,4,6,8,10,12,14,-1,-1,-1,-1,-1,-1,-1,-1],"split_conditions":[1.2E2,NaN,3.2E0,1E1,2.5E1,3.1E0,2E2,4.3687177E-1,8.84539E0,-1.099019E0,1.9103415E0,2.8669865E0,-4.4916453E0,6.1603436E0,1.185324E1],"split_indices":[9,0,6,18,18,6,17,0,0,0,0,0,0,0,0],"split_type":[0,1,0,0,0,0,0,0,0,0,0,0,0,0,0],"sum_hessian":[7.67E2,7.09E2,5.8E1,1.9E1,6.9E2,3.3E1,2.5E1,6E0,1.3E1,5.6E2,1.3E2,2.9E1,4E0,2E1,5E0],"tree_param":{"num_deleted":"0","num_feature":"23","num_nodes":"15","size_leaf_vector":"1"}},{"base_weights":[3.2319295E-1,-1.0906973E1,1.2817408E1,-2.3220171E1,-6.739693E0,3.516416E0,3.8027073E1,-2.175351E0,-5.3714995E0,-2.4237736E-1,-1.9655561E0,-1.4794125E-1,4.6212215E0,5.772032E0,1.149571E0],"categories":[15,17,2,5,7,9,10,11,12,13,14,26,31,0,1,2,3,4,5,6,7,8,9,10,12,13,14,15,16,17,19,20,21,22,25,26,27,28,30,34],"categories_nodes":[3,4,6],"categories_segments":[0,2,13],"categories_sizes":[2,11,27],"default_left":[0,0,0,1,1,1,1,0,0,0,0,0,0,0,0],"id":27,"left_children":[1,3,5,7,9,11,13,-1,-1,-1,-1,-1,-1,-1,-1],"loss_changes":[1.078995E5,2.0625078E4,8.521514E4,3.3935195E3,1.6898488E4,5.7019707E4,5.0540344E4,0E0,0E0,0E0,0E0,0E0,0E0,0E0,0E0],"parents":[2147483647,0,0,1,1,2,2,3,3,4,4,5,5,6,6],"right_children":[2,4,6,8,10,12,14,-1,-1,-1,-1,-1,-1,-1,-1],"split_conditions":[2.36E0,7E0,6.7E0,NaN,NaN,1.2E2,NaN,-2.175351E0,-5.3714995E0,-2.4237736E-1,-1.9655561E0,-1.4794125E-1,4.6212215E0,5.772032E0,1.149571E0],"split_indices":[6,18,12,0,0,9,0,0,0,0,0,0,0,0,0],"split_type":[0,0,0,1,1,0,1,0,0,0,0,0,0,0,0],"sum_hessian":[7.67E2,4.04E2,3.63E2,1.01E2,3.03E2,2.66E2,9.7E1,9.8E1,3E0,2.28E2,7.5E1,2.39E2,2.7E1,5.5E1,4.2E1],"tree_param":{"num_deleted":"0","num_feature":"23","num_nodes":"15","size_leaf_vector":"1"}},{"base_weights":[2.9300874E-1,-5.7662096E0,2.011849E1,2.3201231E1,-1.0102909E1,1.5705208E1,9.357378E1,3.3706033E0,-3.110748E0,-2.719901E0,-7.7355164E-1,6.2621737E-1,3.6611164E0,5.506218E0,1.2107294E1],"categories":[2,3,5,7,9,10,11,12,13,14,15,16,17,19,20,25,26,27,28,29,31,32,33,1,5,10],"categories_nodes":[1,3],"categories_segments":[0,23],"categories_sizes":[23,3],"default_left":[0,1,1,1,0,0,0,0,0,0,0,0,0,0,0],"id":28,"left_children":[1,3,5,7,9,11,13,-1,-1,-1,-1,-1,-1,-1,-1],"loss_changes":[9.2373484E4,7.422639E4,5.688261E4,4.497718E4,2.0552348E4,3.3528816E4,3.9238281E3,0E0,0E0,0E0,0E0,0E0,0E0,0E0,0E0],"parents":[2147483647,0,0,1,1,2,2,3,3,4,4,5,5,6,6],"right_children":[2,4,6,8,10,12,14,-1,-1,-1,-1,-1,-1,-1,-1],"split_conditions":[2E1,NaN,1.25E2,NaN,6.4E1,6.7E0,4.61E3,3.3706033E0,-3.110748E0,-2.719901E0,-7.7355164E-1,6.2621737E-1,3.6611164E0,5.506218E0,1.2107294E1],"split_indices":[18,0,9,4,11,12,7,0,0,0,0,0,0,0,0],"split_type":[0,1,0,1,0,0,0,0,0,0,0,0,0,0,0],"sum_hessian":[7.67E2,5.88E2,1.79E2,7.6E1,5.12E2,1.7E2,9E0,6.4E1,1.2E1,6.1E1,4.51E2,1.18E2,5.2E1,5E0,4E0],"tree_param":{"num_deleted":"0","num_feature":"23","num_nodes":"15","size_leaf_vector":"1"}},{"base_weights":[2.880118E-1,-2.4819276E0,3.9278767E1,1.2837456E1,-3.2105207E0,6.936427E1,2.2195887E1,-5.0834656E-1,4.2925076E0,7.6851745E0,6.309672E-1,-8.978341E-1,4.4466763E0],"categories":[0,2,3,4,5,6,7,8,9,10,11,12,13,14,15,16,17,19,20,21,22,23,24,25,26,27,28,29,30,31,32,33,34,0,1,2,3,4,5,6,7,8,9,10,11,12,13,14,15,17,18,19,21,24,25,26,27,28,30,33,34],"categories_nodes":[1,2],"categories_segments":[0,33],"categories_sizes":[33,28],"default_left":[0,1,1,0,0,0,0,0,0,0,0,0,0],"id":29,"left_children":[1,3,5,-1,7,9,11,-1,-1,-1,-1,-1,-1],"loss_changes":[8.304305E4,6.886708E4,2.4671703E4,0E0,6.200096E4,8.013242E3,2.400467E4,0E0,0E0,0E0,0E0,0E0,0E0],"parents":[2147483647,0,0,1,1,2,2,4,4,5,5,6,6],"right_children":[2,4,6,-1,8,10,12,-1,-1,-1,-1,-1,-1],"split_conditions":[1.2E1,NaN,NaN,1.2837456E1,2.532E3,2E0,4.61E3,-5.0834656E-1,4.2925076E0,7.6851745E0,6.309672E-1,-8.978341E-1,4.4466763E0],"split_indices":[10,0,0,0,22,15,7,0,0,0,0,0,0],"split_type":[0,1,1,0,0,0,0,0,0,0,0,0,0],"sum_hessian":[7.67E2,7.17E2,5E1,3E0,7.14E2,1.7E1,3.3E1,6.87E2,2.7E1,1.5E1,2E0,1.4E1,1.9E1],"tree_param":{"num_deleted":"0","num_feature":"23","num_nodes":"13","size_leaf_vector":"1"}},{"base_weights":[2.9630342E-1,-1.0672173E1,8.852044E0,4.060435E1,-1.1566711E1,3.3401413E1,3.6842933E0,4.7800403E0,2.3120423E-1,-2.3817728E0,-8.7212145E-1,1.0592727E1,2.3160608E0,8.3916925E-2,5.7378902E0],"categories":[0,2,3,4,5,7,8,9,10,11,12,13,14,15,17,19,20,22,24,25,26,27,28,32,33,34],"categories_nodes":[1,2],"categories_segments":[0,1],"categories_sizes":[1,25],"default_left":[0,1,1,0,0,0,1,0,0,0,0,0,0,0,0],"id":30,"left_children":[1,3,5,7,9,11,13,-1,-1,-1,-1,-1,-1,-1,-1],"loss_changes":[7.216623E4,1.5927461E4,5.4682633E4,1.5428047E3,1.1365879E4,5.3250914E4,5.4642727E4,0E0,0E0,0E0,0E0,0E0,0E0,0E0,0E0],"parents":[2147483647,0,0,1,1,2,2,3,3,4,4,5,5,6,6],"right_children":[2,4,6,8,10,12,14,-1,-1,-1,-1,-1,-1,-1,-1],"split_conditions":[1E0,NaN,NaN,6.7E0,6.4E1,4.36E3,1.25E2,4.7800403E0,2.3120423E-1,-2.3817728E0,-8.7212145E-1,1.0592727E1,2.3160608E0,8.3916925E-2,5.7378902E0],"split_indices":[1,16,0,12,11,7,9,0,0,0,0,0,0,0,0],"split_type":[0,1,1,0,0,0,0,0,0,0,0,0,0,0,0],"sum_hessian":[7.67E2,3.36E2,4.31E2,5E0,3.31E2,7.4E1,3.57E2,4E0,1E0,6.1E1,2.7E2,8E0,6.6E1,3.4E2,1.7E1],"tree_param":{"num_deleted":"0","num_feature":"23","num_nodes":"15","size_leaf_vector":"1"}},{"base_weights":[2.9334673E-1,-4.8493757E0,1.7119848E1,2.045588E1,-8.081886E0,1.331611E1,8.04518E1,3.107103E0,-3.0786154E0,-6.191449E-1,-3.4263077E0,2.1323333E0,-8.2630175E-1,4.6115704E0,1.0556476E1],"categories":[2,3,4,5,7,9,10,11,12,13,14,15,16,17,19,20,22,25,26,27,28,29,30,31,32,33,34,1,10,0,1,2,3,4,5,6,9,10,11,12,13,14,15,17,19,20,21,23,24,26,27,28,30,31,34],"categories_nodes":[1,3,5],"categories_segments":[0,27,29],"categories_sizes":[27,2,26],"default_left":[0,1,1,1,0,1,0,0,0,0,0,0,0,0,0],"id":31,"left_children":[1,3,5,7,9,11,13,-1,-1,-1,-1,-1,-1,-1,-1],"loss_changes":[6.654116E4,4.8345227E4,4.2290375E4,3.740067E4,2.5673164E4,2.972309E4,3.7546133E3,0E0,0E0,0E0,0E0,0E0,0E0,0E0,0E0],"parents":[2147483647,0,0,1,1,2,2,3,3,4,4,5,5,6,6],"right_children":[2,4,6,8,10,12,14,-1,-1,-1,-1,-1,-1,-1,-1],"split_conditions":[2E1,NaN,1.25E2,NaN,3.05E0,NaN,4.61E3,3.107103E0,-3.0786154E0,-6.191449E-1,-3.4263077E0,2.1323333E0,-8.2630175E-1,4.6115704E0,1.0556476E1],"split_indices":[18,0,9,4,6,0,7,0,0,0,0,0,0,0,0],"split_type":[0,1,0,1,0,1,0,0,0,0,0,0,0,0,0],"sum_hessian":[7.67E2,5.88E2,1.79E2,6.6E1,5.22E2,1.7E2,9E0,5.5E1,1.1E1,4.88E2,3.4E1,1.24E2,4.6E1,5E0,4E0],"tree_param":{"num_deleted":"0","num_feature":"23","num_nodes":"15","size_leaf_vector":"1"}},{"base_weights":[2.8023034E-1,-3.1889083E0,2.3221859E1,-3.8999302E0,1.158157E1,1.65008E1,5.5461166E1,1.0871529E1,-4.5744935E-1,2.4112535E0,-1.536453E0,7.663742E0,1.426117E0],"categories":[0,2,3,4,5,6,7,8,9,10,11,12,13,14,15,16,17,19,20,21,22,23,24,25,26,27,28,29,30,31,32,33,34,1,2,3,4,5,6,8,9,10,11,12,13,14,15,17,18,19,21,26,27,28,30,34,1,2,3,4,5,6,7,9,10,12,13,14,15,16,17,18,19,20,21,22,23,25,26,27,28,30,31,33,34],"categories_nodes":[3,5,6],"categories_segments":[0,33,56],"categories_sizes":[33,23,29],"default_left":[0,0,0,1,0,1,1,0,0,0,0,0,0],"id":32,"left_children":[1,3,5,7,-1,9,11,-1,-1,-1,-1,-1,-1],"loss_changes":[6.1197402E4,5.6974406E4,2.0969766E4,5.1014773E4,0E0,2.0987264E4,1.3738906E4,0E0,0E0,0E0,0E0,0E0,0E0],"parents":[2147483647,0,0,1,1,2,2,3,3,5,5,6,6],"right_children":[2,4,6,8,-1,10,12,-1,-1,-1,-1,-1,-1],"split_conditions":[2.56E2,3.216E3,1.17E3,NaN,1.158157E1,NaN,NaN,1.0871529E1,-4.5744935E-1,2.4112535E0,-1.536453E0,7.663742E0,1.426117E0],"split_indices":[11,22,21,0,0,0,0,0,0,0,0,0,0],"split_type":[0,0,0,1,0,1,1,0,0,0,0,0,0],"sum_hessian":[7.67E2,6.67E2,1E2,6.64E2,3E0,8.4E1,1.6E1,3E0,6.61E2,6.8E1,1.6E1,1E1,6E0],"tree_param":{"num_deleted":"0","num_feature":"23","num_nodes":"13","size_leaf_vector":"1"}},{"base_weights":[2.9382205E-1,-1.9348304E0,3.1663992E1,-2.5422747E0,1.0712954E1,5.7557587E1,1.7024323E1,8.9328116E-1,-7.8639567E-1,6.422653E0,2.8040162E-1,-9.6172875E-1,3.6154313E0],"categories":[0,1,2,3,4,5,6,7,8,9,10,11,12,13,14,15,17,18,19,21,24,25,26,27,28,30,33,34],"categories_nodes":[2],"categories_segments":[0],"categories_sizes":[28],"default_left":[0,0,1,1,0,0,0,0,0,0,0,0,0],"id":33,"left_children":[1,3,5,7,-1,9,11,-1,-1,-1,-1,-1,-1],"loss_changes":[5.3754605E4,4.7840223E4,1.8352883E4,4.373298E4,0E0,6.392582E3,1.7675934E4,0E0,0E0,0E0,0E0,0E0,0E0],"parents":[2147483647,0,0,1,1,2,2,3,3,5,5,6,6],"right_children":[2,4,6,8,-1,10,12,-1,-1,-1,-1,-1,-1],"split_conditions":[1.2E1,3.216E3,NaN,5E3,1.0712954E1,2E0,4.61E3,8.9328116E-1,-7.8639567E-1,6.422653E0,2.8040162E-1,-9.6172875E-1,3.6154313E0],"split_indices":[10,22,0,7,0,15,7,0,0,0,0,0,0],"split_type":[0,0,1,0,0,0,0,0,0,0,0,0,0],"sum_hessian":[7.67E2,7.17E2,5E1,7.14E2,3E0,1.7E1,3.3E1,2.26E2,4.88E2,1.5E1,2E0,1.4E1,1.9E1],"tree_param":{"num_deleted":"0","num_feature":"23","num_nodes":"13","size_leaf_vector":"1"}},{"base_weights":[2.9071027E-1,-6.041893E0,1.0135786E1,3.773844E1,-7.574881E0,1.1663994E1,-6.694511E1,1.4071273E0,6.615748E0,-1.8171867E-2,-1.3366446E0,6.9067806E-1,5.2107697E0,-1.294458E0,-7.51563E0],"categories":[1,2,3,4,5,6,7,8,9,10,12,13,14,15,16,17,19,20,21,22,23,24,25,26,27,28,29,31,32,33,34,2,3,5,7,8,9,10,12,13,14,15,17,19,20,24,26,27,28,31,33,26,33],"categories_nodes":[1,4,6],"categories_segments":[0,31,51],"categories_sizes":[31,20,2],"default_left":[0,1,0,0,1,0,1,0,0,0,0,0,0,0,0],"id":34,"left_children":[1,3,5,7,9,11,13,-1,-1,-1,-1,-1,-1,-1,-1],"loss_changes":[4.7942168E4,3.169555E4,3.6237332E4,9.83065E3,1.9394117E4,5.6590305E4,1.687582E3,0E0,0E0,0E0,0E0,0E0,0E0,0E0,0E0],"parents":[2147483647,0,0,1,1,2,2,3,3,4,4,5,5,6,6],"right_children":[2,4,6,8,10,12,14,-1,-1,-1,-1,-1,-1,-1,-1],"split_conditions":[1.2E2,NaN,5.5E3,2.408E3,NaN,2.48E3,NaN,1.4071273E0,6.615748E0,-1.8171867E-2,-1.3366446E0,6.9067806E-1,5.2107697E0,-1.294458E0,-7.51563E0],"split_indices":[13,0,7,22,0,22,0,0,0,0,0,0,0,0,0],"split_type":[0,1,0,0,1,0,1,0,0,0,0,0,0,0,0],"sum_hessian":[7.67E2,4.67E2,3E2,1.5E1,4.52E2,2.95E2,5E0,9E0,6E0,1.99E2,2.53E2,2.65E2,3E1,1E0,4E0],"tree_param":{"num_deleted":"0","num_feature":"23","num_nodes":"15","size_leaf_vector":"1"}},{"base_weights":[2.665348E-1,-9.346866E-1,4.523895E1,9.641113E0,-1.4553951E0,1.083158E1,6.727457E1,-3.1008142E-1,3.0158198E0,-3.9871604E0,4.282844E0,9.487469E0,4.1615167E0],"categories":[0,2,3,4,5,6,7,8,9,10,11,12,13,14,15,16,17,19,20,21,22,23,24,25,26,27,28,29,30,31,32,33,34,0,1,2,3,4,5,6,7,8,9,10,11,12,13,14,15,16,17,18,19,21,22,23,24,25,26,27,28,29,30,31,32,34],"categories_nodes":[1,6],"categories_segments":[0,33],"categories_sizes":[33,33],"default_left":[1,1,0,0,0,0,1,0,0,0,0,0,0],"id":35,"left_children":[1,3,5,-1,7,9,11,-1,-1,-1,-1,-1,-1],"loss_changes":[4.1531047E4,3.810623E4,1.44350625E4,0E0,3.889865E4,1.6308725E4,4.550203E3,0E0,0E0,0E0,0E0,0E0,0E0],"parents":[2147483647,0,0,1,1,2,2,4,4,5,5,6,6],"right_children":[2,4,6,-1,8,10,12,-1,-1,-1,-1,-1,-1],"split_conditions":[1.25E2,NaN,4.61E3,9.641113E0,2.532E3,5.03E1,NaN,-3.1008142E-1,3.0158198E0,-3.9871604E0,4.282844E0,9.487469E0,4.1615167E0],"split_indices":[9,0,7,0,22,17,0,0,0,0,0,0,0],"split_type":[0,1,0,0,0,0,1,0,0,0,0,0,0],"sum_hessian":[7.67E2,7.48E2,1.9E1,3E0,7.45E2,8E0,1.1E1,7.09E2,3.6E1,3E0,5E0,4E0,7E0],"tree_param":{"num_deleted":"0","num_feature":"23","num_nodes":"13","size_leaf_vector":"1"}},{"base_weights":[2.7411404E-1,-3.6413405E0,1.3084828E1,9.303676E0,-7.5855236E0,9.841561E0,6.723621E1,3.5607758E0,-5.12081E-1,7.4585238E0,-7.9330987E-1,3.321357E-1,3.1824784E0,3.93231E0,8.728471E0],"categories":[2,3,4,5,7,8,9,11,12,13,14,15,16,17,19,22,23,25,26,27,28,31,32,33,34,0,1,2,3,4,5,6,7,8,9,10,11,12,13,14,15,16,17,18,19,20,21,22,23,24,25,26,27,28,29,30,31,32,33],"categories_nodes":[3,4],"categories_segments":[0,25],"categories_sizes":[25,34],"default_left":[0,1,1,1,1,0,0,0,0,0,0,0,0,0,0],"id":36,"left_children":[1,3,5,7,9,11,13,-1,-1,-1,-1,-1,-1,-1,-1],"loss_changes":[3.8570348E4,3.0143447E4,3.0951225E4,5.2542695E4,1.3501016E4,2.4404602E4,2.1638516E3,0E0,0E0,0E0,0E0,0E0,0E0,0E0,0E0],"parents":[2147483647,0,0,1,1,2,2,3,3,4,4,5,5,6,6],"right_children":[2,4,6,8,10,12,14,-1,-1,-1,-1,-1,-1,-1,-1],"split_conditions":[2E1,5E3,1.25E2,NaN,NaN,4E0,4.61E3,3.5607758E0,-5.12081E-1,7.4585238E0,-7.9330987E-1,3.321357E-1,3.1824784E0,3.93231E0,8.728471E0],"split_indices":[18,7,9,0,0,14,7,0,0,0,0,0,0,0,0],"split_type":[0,0,0,1,1,0,0,0,0,0,0,0,0,0,0],"sum_hessian":[7.67E2,5.88E2,1.79E2,1.37E2,4.51E2,1.7E2,9E0,4.8E1,8.9E1,1E0,4.5E2,1.32E2,3.8E1,5E0,4E0],"tree_param":{"num_deleted":"0","num_feature":"23","num_nodes":"15","size_leaf_vector":"1"}},{"base_weights":[2.804121E-1,-1.5275275E0,2.5727867E1,-2.047887E0,9.186862E0,4.9993114E1,1.2124858E1,8.731687E0,-2.54706E-1,6.0572658E0,1.0371771E0,-1.0990475E0,2.8855114E0],"categories":[0,1,2,3,4,5,6,7,8,9,10,11,12,13,14,15,17,18,19,21,24,25,26,27,28,30,33,34,0,2,3,4,5,6,7,8,9,10,11,12,13,14,15,16,17,19,20,21,22,23,24,25,26,27,28,29,30,31,32,33,34],"categories_nodes":[2,3],"categories_segments":[0,28],"categories_sizes":[28,33],"default_left":[0,0,1,1,0,0,0,0,0,0,0,0,0],"id":37,"left_children":[1,3,5,7,-1,9,11,-1,-1,-1,-1,-1,-1],"loss_changes":[3.5373035E4,3.5082633E4,1.62279375E4,3.2117455E4,0E0,6.916914E3,1.3465797E4,0E0,0E0,0E0,0E0,0E0,0E0],"parents":[2147483647,0,0,1,1,2,2,3,3,5,5,6,6],"right_children":[2,4,6,8,-1,10,12,-1,-1,-1,-1,-1,-1],"split_conditions":[1.2E1,3.216E3,NaN,NaN,9.186862E0,2.404E3,4.61E3,8.731687E0,-2.54706E-1,6.0572658E0,1.0371771E0,-1.0990475E0,2.8855114E0],"split_indices":[10,22,0,0,0,22,7,0,0,0,0,0,0],"split_type":[0,0,1,1,0,0,0,0,0,0,0,0,0],"sum_hessian":[7.67E2,7.17E2,5E1,7.14E2,3E0,1.7E1,3.3E1,3E0,7.11E2,1.3E1,4E0,1.4E1,1.9E1],"tree_param":{"num_deleted":"0","num_feature":"23","num_nodes":"13","size_leaf_vector":"1"}},{"base_weights":[2.8693026E-1,7.106093E0,-5.842606E0,3.7998655E0,3.807606E1,-3.4710314E0,-5.132186E1,1.5157882E0,-1.0269843E0,4.359512E0,-1.5595413E0,-4.8450175E-1,2.4888513E0,-5.5868354E0,-1.9168806E0],"categories":[1,4,6,8,9,10,2,3,11,15,17,24,2,3,4,5,7,9,10,11,12,13,14,15,16,17,19,20,23,26,27,31,32,34,25,27],"categories_nodes":[0,2,3,4],"categories_segments":[0,6,12,34],"categories_sizes":[6,6,22,2],"default_left":[0,1,1,1,1,0,0,0,0,0,0,0,0,0,0],"id":38,"left_children":[1,3,5,7,9,11,13,-1,-1,-1,-1,-1,-1,-1,-1],"loss_changes":[3.2142617E4,3.712664E4,4.350412E4,5.289098E4,1.1047445E4,1.51613125E4,1.8527461E3,0E0,0E0,0E0,0E0,0E0,0E0,0E0,0E0],"parents":[2147483647,0,0,1,1,2,2,3,3,4,4,5,5,6,6],"right_children":[2,4,6,8,10,12,14,-1,-1,-1,-1,-1,-1,-1,-1],"split_conditions":[NaN,1.2E2,NaN,NaN,NaN,1.2E1,1E0,1.5157882E0,-1.0269843E0,4.359512E0,-1.5595413E0,-4.8450175E-1,2.4888513E0,-5.5868354E0,-1.9168806E0],"split_indices":[4,9,0,0,0,10,19,0,0,0,0,0,0,0,0],"split_type":[1,0,1,1,1,0,0,0,0,0,0,0,0,0,0],"sum_hessian":[7.67E2,3.63E2,4.04E2,3.29E2,3.4E1,3.85E2,1.9E1,1.82E2,1.47E2,3.1E1,3E0,3.68E2,1.7E1,1.6E1,3E0],"tree_param":{"num_deleted":"0","num_feature":"23","num_nodes":"15","size_leaf_vector":"1"}},{"base_weights":[2.553568E-1,-6.6484585E0,5.640381E0,-5.975959E0,-5.0107255E0,2.3799938E1,1.6967677E0,3.205541E0,-6.653435E-1,7.8916664E0,1.6265873E0,2.725597E-1,-7.107217E0],"categories":[15,17,2,3,4,5,7,8,9,11,12,13,14,15,17,19,20,22,23,24,25,26,27,28,32,33,34,0],"categories_nodes":[1,2,3],"categories_segments":[0,2,27],"categories_sizes":[2,25,1],"default_left":[0,1,1,1,0,0,0,0,0,0,0,0,0],"id":39,"left_children":[1,3,5,7,-1,9,11,-1,-1,-1,-1,-1,-1],"loss_changes":[2.8589598E4,9.549734E3,3.0896984E4,8.793142E3,0E0,3.0690828E4,2.6846299E4,0E0,0E0,0E0,0E0,0E0,0E0],"parents":[2147483647,0,0,1,1,2,2,3,3,5,5,6,6],"right_children":[2,4,6,8,-1,10,12,-1,-1,-1,-1,-1,-1],"split_conditions":[1E0,NaN,NaN,NaN,-5.0107255E0,4.36E3,5.5E3,3.205541E0,-6.653435E-1,7.8916664E0,1.6265873E0,2.725597E-1,-7.107217E0],"split_indices":[1,0,0,16,0,7,7,0,0,0,0,0,0],"split_type":[0,1,1,1,0,0,0,0,0,0,0,0,0],"sum_hessian":[7.67E2,3.36E2,4.31E2,3.32E2,4E0,7.6E1,3.55E2,5E0,3.27E2,8E0,6.8E1,3.51E2,4E0],"tree_param":{"num_deleted":"0","num_feature":"23","num_nodes":"13","size_leaf_vector":"1"}},{"base_weights":[2.3010036E-1,-1.7769994E0,1.7757553E1,4.432757E0,-8.409053E0,6.842424E1,1.0265775E1,1.8845282E-1,3.8197854E0,-7.4224937E-1,-6.11039E0,2.50195E0,1.2727648E1,4.550676E0,4.984571E-1],"categories":[2,3,5,7,9,10,12,13,14,15,17,19,20,26,27,28,31,33,0,1,2,3,4,5,6,7,8,9,10,11,12,13,14,15,16,17,18,19,20,21,22,23,25,26,27,28,30,31,32,33,34],"categories_nodes":[1,6],"categories_segments":[0,18],"categories_sizes":[18,33],"default_left":[0,1,0,0,0,0,1,0,0,0,0,0,0,0,0],"id":40,"left_children":[1,3,5,7,9,11,13,-1,-1,-1,-1,-1,-1,-1,-1],"loss_changes":[2.7049291E4,2.8453848E4,2.9284672E4,3.0644719E4,1.6909984E4,2.2360266E4,1.2801205E4,0E0,0E0,0E0,0E0,0E0,0E0,0E0,0E0],"parents":[2147483647,0,0,1,1,2,2,3,3,4,4,5,5,6,6],"right_children":[2,4,6,8,10,12,14,-1,-1,-1,-1,-1,-1,-1,-1],"split_conditions":[1.08E2,NaN,2.376E3,2.48E3,5.18E3,2.6E0,NaN,1.8845282E-1,3.8197854E0,-7.4224937E-1,-6.11039E0,2.50195E0,1.2727648E1,4.550676E0,4.984571E-1],"split_indices":[17,0,22,22,7,6,0,0,0,0,0,0,0,0,0],"split_type":[0,1,0,0,0,0,1,0,0,0,0,0,0,0,0],"sum_hessian":[7.67E2,6.89E2,7.8E1,3.56E2,3.33E2,9E0,6.9E1,3.32E2,2.4E1,3.28E2,5E0,6E0,3E0,8E0,6.1E1],"tree_param":{"num_deleted":"0","num_feature":"23","num_nodes":"15","size_leaf_vector":"1"}},{"base_weights":[2.2979283E-1,-2.8781781E0,1.0398487E1,7.7167826E0,-3.2823687E0,4.5149627E0,3.2265476E1,1.5585946E-1,-8.34804E-1,2.152183E0,-3.2610375E-1,6.0018225E0,-2.5721977E0],"categories":[0,2,3,4,5,6,7,8,9,10,11,12,13,14,15,16,17,19,20,21,22,23,24,25,26,27,28,29,30,31,32,33,34,2,3,5,7,9,10,12,13,14,15,16,17,19,20,26,28,31,32,33,0,1,2,3,4,5,6,9,10,11,12,13,14,15,17,19,20,21,22,23,24,25,27,28,29,30,31,33,34,0,1,2,3,4,5,6,7,8,9,10,11,12,13,14,15,16,17,18,19,21,23,24,26,27,28,30,31,32,34],"categories_nodes":[1,4,5,6],"categories_segments":[0,33,52,81],"categories_sizes":[33,19,29,30],"default_left":[0,1,0,0,1,1,1,0,0,0,0,0,0],"id":41,"left_children":[1,3,5,-1,7,9,11,-1,-1,-1,-1,-1,-1],"loss_changes":[2.4301805E4,1.9309701E4,2.3012223E4,0E0,1.440785E4,1.8981275E4,6.269761E4,0E0,0E0,0E0,0E0,0E0,0E0],"parents":[2147483647,0,0,1,1,2,2,4,4,5,5,6,6],"right_children":[2,4,6,-1,8,10,12,-1,-1,-1,-1,-1,-1],"split_conditions":[2E1,NaN,3.2E0,7.7167826E0,NaN,NaN,NaN,1.5585946E-1,-8.34804E-1,2.152183E0,-3.2610375E-1,6.0018225E0,-2.5721977E0],"split_indices":[18,0,6,0,0,0,0,0,0,0,0,0,0],"split_type":[0,1,0,0,1,1,1,0,0,0,0,0,0],"sum_hessian":[7.67E2,5.88E2,1.79E2,2E0,5.86E2,1.42E2,3.7E1,3E2,2.86E2,4.4E1,9.8E1,2.5E1,1.2E1],"tree_param":{"num_deleted":"0","num_feature":"23","num_nodes":"13","size_leaf_vector":"1"}},{"base_weights":[2.2282283E-1,-4.062525E0,6.885015E0,2.7108269E1,-5.0126977E0,3.8723505E0,3.2999435E1,6.247583E0,1.6007357E0,-3.4433505E-1,-2.2649014E0,-4.1237482E-1,1.6954567E0,4.3647075E0,-3.1097686E0],"categories":[1,2,3,4,5,6,7,8,9,10,12,13,14,15,16,17,19,20,21,22,23,24,25,26,27,28,29,30,31,32,33,34,0,1,2,3,4,5,6,7,8,9,10,11,12,13,14,15,16,17,19,20,21,22,23,24,25,26,27,28,29,30,31,32,33,34,2,3,5,7,12,15,17,19,24,0,1,2,3,4,5,6,9,10,11,12,13,14,15,16,17,18,19,20,21,22,23,26,27,30,31,32,34],"categories_nodes":[1,3,4,6],"categories_segments":[0,32,66,75],"categories_sizes":[32,34,9,28],"default_left":[0,1,0,1,1,0,1,0,0,0,0,0,0,0,0],"id":42,"left_children":[1,3,5,7,9,11,13,-1,-1,-1,-1,-1,-1,-1,-1],"loss_changes":[2.1954225E4,1.3996941E4,2.3553086E4,4.496497E3,1.2515271E4,2.8418334E4,2.251429E4,0E0,0E0,0E0,0E0,0E0,0E0,0E0,0E0],"parents":[2147483647,0,0,1,1,2,2,3,3,4,4,5,5,6,6],"right_children":[2,4,6,8,10,12,14,-1,-1,-1,-1,-1,-1,-1,-1],"split_conditions":[1.2E2,NaN,4E0,NaN,NaN,3E0,NaN,6.247583E0,1.6007357E0,-3.4433505E-1,-2.2649014E0,-4.1237482E-1,1.6954567E0,4.3647075E0,-3.1097686E0],"split_indices":[13,0,14,0,0,6,0,0,0,0,0,0,0,0,0],"split_type":[0,1,0,1,1,0,1,0,0,0,0,0,0,0,0],"sum_hessian":[7.67E2,4.67E2,3E2,1.3E1,4.54E2,2.7E2,3E1,2E0,1.1E1,4.18E2,3.6E1,1.68E2,1.02E2,2.6E1,4E0],"tree_param":{"num_deleted":"0","num_feature":"23","num_nodes":"15","size_leaf_vector":"1"}},{"base_weights":[2.1066682E-1,-1.5079268E0,1.5218502E1,2.5792427E1,-2.6586084E0,6.2335167E1,8.270143E0,-5.162491E-1,3.843252E0,-4.001836E-1,1.7816738E0,2.268359E0,1.1614164E1,3.759241E0,3.880295E-1],"categories":[2,3,4,5,7,9,10,11,12,13,14,15,17,19,20,21,22,23,24,25,26,27,28,29,30,31,32,33,34,0,1,2,3,4,5,6,7,8,9,10,11,12,13,14,15,16,17,18,19,20,21,22,23,25,26,27,28,30,31,32,33,34],"categories_nodes":[1,6],"categories_segments":[0,29],"categories_sizes":[29,33],"default_left":[0,1,0,0,0,0,1,0,0,0,0,0,0,0,0],"id":43,"left_children":[1,3,5,7,9,11,13,-1,-1,-1,-1,-1,-1,-1,-1],"loss_changes":[1.9831488E4,2.1744244E4,2.5347777E4,1.1154049E4,1.830582E4,1.870061E4,8.864551E3,0E0,0E0,0E0,0E0,0E0,0E0,0E0,0E0],"parents":[2147483647,0,0,1,1,2,2,3,3,4,4,5,5,6,6],"right_children":[2,4,6,8,10,12,14,-1,-1,-1,-1,-1,-1,-1,-1],"split_conditions":[1.08E2,NaN,2.376E3,1E1,1.2E1,2.6E0,NaN,-5.162491E-1,3.843252E0,-4.001836E-1,1.7816738E0,2.268359E0,1.1614164E1,3.759241E0,3.880295E-1],"split_indices":[17,0,22,18,10,6,0,0,0,0,0,0,0,0,0],"split_type":[0,1,0,0,0,0,1,0,0,0,0,0,0,0,0],"sum_hessian":[7.67E2,6.89E2,7.8E1,2.7E1,6.62E2,9E0,6.9E1,8E0,1.9E1,6.22E2,4E1,6E0,3E0,8E0,6.1E1],"tree_param":{"num_deleted":"0","num_feature":"23","num_nodes":"15","size_leaf_vector":"1"}},{"base_weights":[2.1920367E-1,6.574192E-1,-5.5543743E1,-7.7831054E-1,3.1464046E1,-1.5010254E0,-6.064839E0,6.6235595E0,-1.2387668E-1,5.4791217E0,1.796528E-1],"categories":[26,33,0,2,3,4,5,6,7,8,9,10,11,12,13,14,15,17,19,20,21,22,23,24,25,26,27,28,29,30,31,32,33,34,0,1,2,3,4,5,6,7,9,10,12,13,14,15,16,17,18,19,20,21,22,23,25,26,27,28,29,30,31,32,34],"categories_nodes":[2,3,4],"categories_segments":[0,2,34],"categories_sizes":[2,32,31],"default_left":[1,0,1,1,1,0,0,0,0,0,0],"id":44,"left_children":[1,3,5,7,9,-1,-1,-1,-1,-1,-1],"loss_changes":[1.880351E4,3.3771973E4,3.3110938E2,2.2607637E4,2.3431582E4,0E0,0E0,0E0,0E0,0E0,0E0],"parents":[2147483647,0,0,1,1,2,2,3,3,4,4],"right_children":[2,4,6,8,10,-1,-1,-1,-1,-1,-1],"split_conditions":[5.5E3,2.532E3,NaN,NaN,NaN,-1.5010254E0,-6.064839E0,6.6235595E0,-1.2387668E-1,5.4791217E0,1.796528E-1],"split_indices":[7,22,0,0,0,0,0,0,0,0,0],"split_type":[0,0,1,1,1,0,0,0,0,0,0],"sum_hessian":[7.67E2,7.62E2,5E0,7.29E2,3.3E1,1E0,4E0,4E0,7.25E2,1.8E1,1.5E1],"tree_param":{"num_deleted":"0","num_feature":"23","num_nodes":"11","size_leaf_vector":"1"}},{"base_weights":[2.0326091E-1,-5.5269116E-1,2.8503504E1,9.3766147E-1,-1.7377285E1,1.2153456E0,4.659433E1,1.3884342E-1,-4.317883E0,-1.0734084E0,-5.018421E0,-3.954911E0,2.8189094E0,7.107042E0,2.5472481E0],"categories":[2,3,5,12,13,15,17,19,23,26],"categories_nodes":[1],"categories_segments":[0],"categories_sizes":[10],"default_left":[1,1,0,1,0,0,0,0,0,0,0,0,0,0,0],"id":45,"left_children":[1,3,5,7,9,11,13,-1,-1,-1,-1,-1,-1,-1,-1],"loss_changes":[1.6446059E4,1.8797154E4,9.816676E3,1.3761756E4,1.2755846E4,1.1010983E4,4.3934277E3,0E0,0E0,0E0,0E0,0E0,0E0,0E0,0E0],"parents":[2147483647,0,0,1,1,2,2,3,3,4,4,5,5,6,6],"right_children":[2,4,6,8,10,12,14,-1,-1,-1,-1,-1,-1,-1,-1],"split_conditions":[1.25E2,NaN,4.61E3,5.2E3,3.05E0,5.03E1,1.5E2,1.3884342E-1,-4.317883E0,-1.0734084E0,-5.018421E0,-3.954911E0,2.8189094E0,7.107042E0,2.5472481E0],"split_indices":[9,0,7,7,6,17,9,0,0,0,0,0,0,0,0],"split_type":[0,1,0,0,0,0,0,0,0,0,0,0,0,0,0],"sum_hessian":[7.67E2,7.48E2,1.9E1,6.88E2,6E1,8E0,1.1E1,6.82E2,6E0,5.1E1,9E0,3E0,5E0,4E0,7E0],"tree_param":{"num_deleted":"0","num_feature":"23","num_nodes":"15","size_leaf_vector":"1"}},{"base_weights":[1.8065037E-1,-1.3439393E0,1.34944E1,3.9314702E0,-6.0247154E0,5.720842E1,7.056763E0,1.5790876E0,-1.5638223E-1,-7.8223103E-1,2.1122992E0,2.072643E0,1.0674979E1,3.4237537E0,2.997348E-1],"categories":[2,3,5,7,9,10,11,12,13,14,15,17,19,20,26,27,28,31,33,0,1,2,3,4,5,6,7,8,9,10,11,12,13,14,15,16,17,18,19,20,21,22,23,25,26,27,28,30,31,32,33,34],"categories_nodes":[1,6],"categories_segments":[0,19],"categories_sizes":[19,33],"default_left":[0,1,0,0,1,0,1,0,0,0,0,0,0,0,0],"id":46,"left_children":[1,3,5,7,9,11,13,-1,-1,-1,-1,-1,-1,-1,-1],"loss_changes":[1.5607005E4,1.7061863E4,2.1828074E4,2.1205238E4,1.8026242E4,1.5861137E4,7.621041E3,0E0,0E0,0E0,0E0,0E0,0E0,0E0,0E0],"parents":[2147483647,0,0,1,1,2,2,3,3,4,4,5,5,6,6],"right_children":[2,4,6,8,10,12,14,-1,-1,-1,-1,-1,-1,-1,-1],"split_conditions":[1.08E2,NaN,2.376E3,1E0,1E2,2.6E0,NaN,1.5790876E0,-1.5638223E-1,-7.8223103E-1,2.1122992E0,2.072643E0,1.0674979E1,3.4237537E0,2.997348E-1],"split_indices":[17,0,22,19,9,6,0,0,0,0,0,0,0,0,0],"split_type":[0,1,0,0,0,0,1,0,0,0,0,0,0,0,0],"sum_hessian":[7.67E2,6.89E2,7.8E1,3.24E2,3.65E2,9E0,6.9E1,1.02E2,2.22E2,3.43E2,2.2E1,6E0,3E0,8E0,6.1E1],"tree_param":{"num_deleted":"0","num_feature":"23","num_nodes":"15","size_leaf_vector":"1"}},{"base_weights":[1.8761282E-1,-8.207587E0,2.3929403E0,-6.210437E0,-4.1025295E1,3.7843315E1,1.4952117E0,-7.69108E-1,2.555876E0,-1.6377363E0,-4.5727935E0,-1.2961394E-1,6.40803E0,1.9886665E-1,-4.727705E0],"categories":[2,6,7,15,17],"categories_nodes":[1],"categories_segments":[0],"categories_sizes":[5],"default_left":[0,1,0,1,0,0,0,0,0,0,0,0,0,0,0],"id":47,"left_children":[1,3,5,7,9,11,13,-1,-1,-1,-1,-1,-1,-1,-1],"loss_changes":[1.423852E4,1.023192E4,1.9324729E4,7.3464795E3,2.94292E2,1.5486578E4,1.4413828E4,0E0,0E0,0E0,0E0,0E0,0E0,0E0,0E0],"parents":[2147483647,0,0,1,1,2,2,3,3,4,4,5,5,6,6],"right_children":[2,4,6,8,10,12,14,-1,-1,-1,-1,-1,-1,-1,-1],"split_conditions":[1.6E1,NaN,6.4E0,3E1,6.14E0,4.1E3,5.5E3,-7.69108E-1,2.555876E0,-1.6377363E0,-4.5727935E0,-1.2961394E-1,6.40803E0,1.9886665E-1,-4.727705E0],"split_indices":[17,0,12,9,12,7,7,0,0,0,0,0,0,0,0],"split_type":[0,1,0,0,0,0,0,0,0,0,0,0,0,0,0],"sum_hessian":[7.67E2,1.59E2,6.08E2,1.51E2,8E0,1.4E1,5.94E2,1.45E2,6E0,2E0,6E0,6E0,8E0,5.89E2,5E0],"tree_param":{"num_deleted":"0","num_feature":"23","num_nodes":"15","size_leaf_vector":"1"}},{"base_weights":[1.6537485E-1,-1.5344002E0,1.0240028E1,7.1308205E1,-2.0889547E0,1.7218874E1,-2.9361755E1,2.0998871E0,7.863582E0,-3.4279317E-1,1.5683349E0,6.4370766E0,8.274464E-1,6.36867E-1,-8.131503E0],"categories":[0,2,3,4,5,6,7,8,9,10,11,12,13,14,15,16,17,19,20,21,22,23,24,25,26,27,28,29,30,31,32,33,3,10,20,21,27,31,34],"categories_nodes":[1,2],"categories_segments":[0,32],"categories_sizes":[32,7],"default_left":[0,1,1,0,0,0,0,0,0,0,0,0,0,0,0],"id":48,"left_children":[1,3,5,7,9,11,13,-1,-1,-1,-1,-1,-1,-1,-1],"loss_changes":[1.3167439E4,2.6728994E4,3.1183172E4,1.9197266E2,1.5616807E4,3.953322E4,3.2075184E4,0E0,0E0,0E0,0E0,0E0,0E0,0E0,0E0],"parents":[2147483647,0,0,1,1,2,2,3,3,4,4,5,5,6,6],"right_children":[2,4,6,8,10,12,14,-1,-1,-1,-1,-1,-1,-1,-1],"split_conditions":[4E0,NaN,NaN,4.015E3,1.2E1,1E0,1E0,2.0998871E0,7.863582E0,-3.4279317E-1,1.5683349E0,6.4370766E0,8.274464E-1,6.36867E-1,-8.131503E0],"split_indices":[14,0,0,7,10,19,1,0,0,0,0,0,0,0,0],"split_type":[0,1,1,0,0,0,0,0,0,0,0,0,0,0,0],"sum_hessian":[7.67E2,6.57E2,1.1E2,4E0,6.53E2,9.4E1,1.6E1,1E0,3E0,6.08E2,4.5E1,1.4E1,8E1,1E1,6E0],"tree_param":{"num_deleted":"0","num_feature":"23","num_nodes":"15","size_leaf_vector":"1"}},{"base_weights":[1.6310582E-1,-7.409557E-1,1.7550102E1,1.3422792E0,-1.1049485E1,2.6603043E1,-4.751992E0,-3.8490197E-1,6.231713E-1,-4.0137488E-1,-2.359061E0,4.228131E0,-1.0022539E0],"categories":[2,3,5,11,12,13,14,15,17,19,24,26,1,8,9,10,6,7,25,29,32],"categories_nodes":[1,4,5],"categories_segments":[0,12,16],"categories_sizes":[12,4,5],"default_left":[0,1,1,0,1,1,0,0,0,0,0,0,0],"id":49,"left_children":[1,3,5,7,9,11,-1,-1,-1,-1,-1,-1,-1],"loss_changes":[1.208513E4,1.571312E4,2.3649031E4,1.5481937E4,1.0758346E4,1.9947438E4,0E0,0E0,0E0,0E0,0E0,0E0,0E0],"parents":[2147483647,0,0,1,1,2,2,3,3,4,4,5,5],"right_children":[2,4,6,8,10,12,-1,-1,-1,-1,-1,-1,-1],"split_conditions":[2.532E3,NaN,5.5E3,1E0,NaN,NaN,-4.751992E0,-3.8490197E-1,6.231713E-1,-4.0137488E-1,-2.359061E0,4.228131E0,-1.0022539E0],"split_indices":[22,0,7,1,4,0,0,0,0,0,0,0,0],"split_type":[0,1,0,0,1,1,0,0,0,0,0,0,0],"sum_hessian":[7.67E2,7.3E2,3.7E1,6.08E2,1.22E2,3.3E1,4E0,2.95E2,3.13E2,7.9E1,4.3E1,2.3E1,1E1],"tree_param":{"num_deleted":"0","num_feature":"23","num_nodes":"13","size_leaf_vector":"1"}},{"base_weights":[1.415243E-1,-4.8533654E-1,2.3610386E1,1.8782089E0,-7.1634936E0,2.1336892E0,4.4873714E1,-2.3189012E-2,1.5784914E0,-4.0794107E-1,-2.8095446E0,-3.4932573E0,2.040011E0,2.2522736E0,7.2769504E0],"categories":[2,3,5,9,10,11,12,13,14,15,17,19,20,23,26,28,31],"categories_nodes":[1],"categories_segments":[0],"categories_sizes":[17],"default_left":[1,1,0,0,0,0,0,0,0,0,0,0,0,0,0],"id":50,"left_children":[1,3,5,7,9,11,13,-1,-1,-1,-1,-1,-1,-1,-1],"loss_changes":[1.1310052E4,1.1835767E4,9.037575E3,1.6260527E4,1.2538339E4,8.160374E3,4.5960137E3,0E0,0E0,0E0,0E0,0E0,0E0,0E0,0E0],"parents":[2147483647,0,0,1,1,2,2,3,3,4,4,5,5,6,6],"right_children":[2,4,6,8,10,12,14,-1,-1,-1,-1,-1,-1,-1,-1],"split_conditions":[1.25E2,NaN,2E1,6.7E0,3.1E0,4.61E3,2.404E3,-2.3189012E-2,1.5784914E0,-4.0794107E-1,-2.8095446E0,-3.4932573E0,2.040011E0,2.2522736E0,7.2769504E0],"split_indices":[9,0,18,12,6,7,22,0,0,0,0,0,0,0,0],"split_type":[0,1,0,0,0,0,0,0,0,0,0,0,0,0,0],"sum_hessian":[7.67E2,7.48E2,1.9E1,5.53E2,1.95E2,1E1,9E0,4.81E2,7.2E1,1.71E2,2.4E1,3E0,7E0,6E0,3E0],"tree_param":{"num_deleted":"0","num_feature":"23","num_nodes":"15","size_leaf_vector":"1"}},{"base_weights":[1.3572511E-1,-1.3672894E0,9.044264E0,3.830739E1,-2.2263253E0,1.5306012E1,-2.6479874E1,6.438522E0,-7.193919E-1,-3.3003795E-1,1.2519287E0,5.7446475E0,7.313259E-1,6.300598E-1,-7.420921E0],"categories":[0,2,3,4,5,6,7,8,9,10,11,12,13,14,15,17,19,20,22,23,24,25,26,27,28,29,30,31,32,33,3,10,20,21,27,31,34],"categories_nodes":[1,2],"categories_segments":[0,30],"categories_sizes":[30,7],"default_left":[0,1,1,0,0,0,0,0,0,0,0,0,0,0,0],"id":51,"left_children":[1,3,5,7,9,11,13,-1,-1,-1,-1,-1,-1,-1,-1],"loss_changes":[1.0295627E4,2.2511229E4,2.5096496E4,1.7075238E4,1.0256561E4,3.1577615E4,2.706559E4,0E0,0E0,0E0,0E0,0E0,0E0,0E0,0E0],"parents":[2147483647,0,0,1,1,2,2,3,3,4,4,5,5,6,6],"right_children":[2,4,6,8,10,12,14,-1,-1,-1,-1,-1,-1,-1,-1],"split_conditions":[4E0,NaN,NaN,5.003E3,1.2E1,1E0,1E0,6.438522E0,-7.193919E-1,-3.3003795E-1,1.2519287E0,5.7446475E0,7.313259E-1,6.300598E-1,-7.420921E0],"split_indices":[14,0,0,7,10,19,1,0,0,0,0,0,0,0,0],"split_type":[0,1,1,0,0,0,0,0,0,0,0,0,0,0,0],"sum_hessian":[7.67E2,6.57E2,1.1E2,1.3E1,6.44E2,9.4E1,1.6E1,8E0,5E0,6.01E2,4.3E1,1.4E1,8E1,1E1,6E0],"tree_param":{"num_deleted":"0","num_feature":"23","num_nodes":"15","size_leaf_vector":"1"}},{"base_weights":[1.30389E-1,-1.0721432E0,1.0631868E1,1.588285E1,-2.0297313E0,4.9640457E1,4.9073286E0,4.5710216E0,3.1427073E-1,-1.6765335E-1,-3.989568E0,1.7149538E0,9.408945E0,9.273656E-1,-1.4950695E0],"categories":[2,3,5,7,9,10,11,12,13,14,15,17,19,20,22,23,24,25,26,27,28,29,30,31,32,33,34,7,8,20,26],"categories_nodes":[1,6],"categories_segments":[0,27],"categories_sizes":[27,4],"default_left":[0,1,0,0,0,0,1,0,0,0,0,0,0,0,0],"id":52,"left_children":[1,3,5,7,9,11,13,-1,-1,-1,-1,-1,-1,-1,-1],"loss_changes":[9.709984E3,1.123501E4,1.7397586E4,1.3916523E4,8.679822E3,1.2828295E4,6.2081123E3,0E0,0E0,0E0,0E0,0E0,0E0,0E0,0E0],"parents":[2147483647,0,0,1,1,2,2,3,3,4,4,5,5,6,6],"right_children":[2,4,6,8,10,12,14,-1,-1,-1,-1,-1,-1,-1,-1],"split_conditions":[1.08E2,NaN,2.376E3,4.4E3,5.18E3,2.6E0,NaN,4.5710216E0,3.1427073E-1,-1.6765335E-1,-3.989568E0,1.7149538E0,9.408945E0,9.273656E-1,-1.4950695E0],"split_indices":[17,0,22,7,7,6,0,0,0,0,0,0,0,0,0],"split_type":[0,1,0,0,0,0,1,0,0,0,0,0,0,0,0],"sum_hessian":[7.67E2,6.89E2,7.8E1,3.6E1,6.53E2,9E0,6.9E1,1E1,2.6E1,6.48E2,5E0,6E0,3E0,5.7E1,1.2E1],"tree_param":{"num_deleted":"0","num_feature":"23","num_nodes":"15","size_leaf_vector":"1"}},{"base_weights":[1.3204445E-1,-4.2947403E-1,2.1154308E1,-3.0971171E-2,-3.3191822E0,1.4220082E0,4.0744408E1,-1.0878076E-1,2.2675939E0,1.5206312E0,-4.0404906E0,1.9837179E0,6.714596E0],"categories":[1],"categories_nodes":[5],"categories_segments":[0],"categories_sizes":[1],"default_left":[1,1,0,0,0,1,0,0,0,0,0,0,0],"id":53,"left_children":[1,3,5,7,-1,9,11,-1,-1,-1,-1,-1,-1],"loss_changes":[9.074856E3,9.777833E3,7.673217E3,1.7806805E4,0E0,6.9565137E3,4.1878457E3,0E0,0E0,0E0,0E0,0E0,0E0],"parents":[2147483647,0,0,1,1,2,2,3,3,5,5,6,6],"right_children":[2,4,6,8,-1,10,12,-1,-1,-1,-1,-1,-1],"split_conditions":[1.25E2,5.18E3,2E1,2.532E3,-3.3191822E0,NaN,2.404E3,-1.0878076E-1,2.2675939E0,1.5206312E0,-4.0404906E0,1.9837179E0,6.714596E0],"split_indices":[9,7,18,22,0,4,22,0,0,0,0,0,0],"split_type":[0,0,0,0,0,1,0,0,0,0,0,0,0],"sum_hessian":[7.67E2,7.48E2,1.9E1,7.4E2,8E0,1E1,9E0,7.08E2,3.2E1,8E0,2E0,6E0,3E0],"tree_param":{"num_deleted":"0","num_feature":"23","num_nodes":"13","size_leaf_vector":"1"}},{"base_weights":[1.2537791E-1,-1.1090239E1,1.1260273E0,-8.929563E0,-4.072783E0,1.4282901E0,-3.437601E0,-1.0590979E0,1.1464218E0,4.5110017E-2,2.0585191E0],"categories":[],"categories_nodes":[],"categories_segments":[],"categories_sizes":[],"default_left":[0,0,1,0,0,0,0,0,0,0,0],"id":54,"left_children":[1,3,5,7,-1,9,-1,-1,-1,-1,-1],"loss_changes":[8.631676E3,3.6706655E3,7.6251465E3,2.154371E3,0E0,1.3113385E4,0E0,0E0,0E0,0E0,0E0],"parents":[2147483647,0,0,1,1,2,2,3,3,5,5],"right_children":[2,4,6,8,-1,10,-1,-1,-1,-1,-1],"split_conditions":[6.4E1,2.36E0,5.5E3,4E0,-4.072783E0,2.532E3,-3.437601E0,-1.0590979E0,1.1464218E0,4.5110017E-2,2.0585191E0],"split_indices":[11,6,7,10,0,22,0,0,0,0,0],"split_type":[0,0,0,0,0,0,0,0,0,0,0],"sum_hessian":[7.67E2,6.2E1,7.05E2,5.9E1,3E0,7E2,5E0,5.5E1,4E0,6.67E2,3.3E1],"tree_param":{"num_deleted":"0","num_feature":"23","num_nodes":"11","size_leaf_vector":"1"}},{"base_weights":[1.0591689E-1,-9.6465546E-1,9.455145E0,3.3811164E0,-4.067925E0,4.563686E1,4.151255E0,1.4453689E0,-7.2808646E-2,-5.3326774E-1,1.9192457E0,1.573416E0,8.655738E0,-1.3056269E0,8.686283E-1],"categories":[2,3,5,7,9,10,11,12,13,14,15,17,19,20,24,26,27,28,31,33,34],"categories_nodes":[1],"categories_segments":[0],"categories_sizes":[21],"default_left":[0,1,0,0,0,0,0,0,0,0,0,0,0,0,0],"id":55,"left_children":[1,3,5,7,9,11,13,-1,-1,-1,-1,-1,-1,-1,-1],"loss_changes":[7.6960522E3,9.319163E3,1.4970953E4,1.3114365E4,1.1958051E4,1.0874432E4,5.575973E3,0E0,0E0,0E0,0E0,0E0,0E0,0E0,0E0],"parents":[2147483647,0,0,1,1,2,2,3,3,4,4,5,5,6,6],"right_children":[2,4,6,8,10,12,14,-1,-1,-1,-1,-1,-1,-1,-1],"split_conditions":[1.08E2,NaN,2.376E3,1E0,2.532E3,2.6E0,1.2E2,1.4453689E0,-7.2808646E-2,-5.3326774E-1,1.9192457E0,1.573416E0,8.655738E0,-1.3056269E0,8.686283E-1],"split_indices":[17,0,22,19,22,6,13,0,0,0,0,0,0,0,0],"split_type":[0,1,0,0,0,0,0,0,0,0,0,0,0,0,0],"sum_hessian":[7.67E2,6.89E2,7.8E1,2.87E2,4.02E2,9E0,6.9E1,7.7E1,2.1E2,3.82E2,2E1,6E0,3E0,1.4E1,5.5E1],"tree_param":{"num_deleted":"0","num_feature":"23","num_nodes":"15","size_leaf_vector":"1"}},{"base_weights":[1.1166646E-1,-1.1773142E0,7.7516446E0,3.3694347E1,-1.9323932E0,2.111329E1,-5.7484245E0,2.5482997E-1,6.4476357E0,-2.5042674E-1,1.7041155E0,5.3351603E0,1.2945145E0,-1.783133E-1,-7.5207534E0],"categories":[0,2,3,4,5,6,7,8,9,10,11,12,13,14,15,17,19,20,22,23,24,25,26,27,28,29,30,31,32,33,0,1,2,3,4,5,6,7,8,9,10,11,12,13,14,15,16,17,18,19,20,21,22,23,27,30,31,33,34],"categories_nodes":[1,2],"categories_segments":[0,30],"categories_sizes":[30,29],"default_left":[0,1,1,1,1,0,0,0,0,0,0,0,0,0,0],"id":56,"left_children":[1,3,5,7,9,11,13,-1,-1,-1,-1,-1,-1,-1,-1],"loss_changes":[7.572224E3,1.7390816E4,2.01439E4,1.3258026E4,7.0412354E3,1.4055678E4,1.5289731E4,0E0,0E0,0E0,0E0,0E0,0E0,0E0,0E0],"parents":[2147483647,0,0,1,1,2,2,3,3,4,4,5,5,6,6],"right_children":[2,4,6,8,10,12,14,-1,-1,-1,-1,-1,-1,-1,-1],"split_conditions":[4E0,NaN,NaN,2.5E1,1.25E2,1E0,2.85E0,2.5482997E-1,6.4476357E0,-2.5042674E-1,1.7041155E0,5.3351603E0,1.2945145E0,-1.783133E-1,-7.5207534E0],"split_indices":[14,0,0,9,9,19,6,0,0,0,0,0,0,0,0],"split_type":[0,1,1,0,0,0,0,0,0,0,0,0,0,0,0],"sum_hessian":[7.67E2,6.57E2,1.1E2,1.3E1,6.44E2,5.5E1,5.5E1,7E0,6E0,6.26E2,1.8E1,1E1,4.5E1,5.3E1,2E0],"tree_param":{"num_deleted":"0","num_feature":"23","num_nodes":"15","size_leaf_vector":"1"}},{"base_weights":[1.0972791E-1,3.7733606E-1,-3.3939397E0,-4.0234998E-1,1.7106556E1,1.327433E-1,-8.471552E-1,3.3505108E0,-1.1960729E0],"categories":[2,3,5,8,11,12,13,15,17,19,24,26,28,1,2,3,4,5,6,7,9,10,12,13,14,15,16,17,18,19,20,21,22,23,25,26,27,28,29,30,31,32,34],"categories_nodes":[3,4],"categories_segments":[0,13],"categories_sizes":[13,30],"default_left":[1,0,0,1,1,0,0,0,0],"id":57,"left_children":[1,3,-1,5,7,-1,-1,-1,-1],"loss_changes":[7.010687E3,9.959104E3,0E0,1.0200562E4,1.6607232E4,0E0,0E0,0E0,0E0],"parents":[2147483647,0,0,1,1,3,3,4,4],"right_children":[2,4,-1,6,8,-1,-1,-1,-1],"split_conditions":[5.5E3,2.532E3,-3.3939397E0,NaN,NaN,1.327433E-1,-8.471552E-1,3.3505108E0,-1.1960729E0],"split_indices":[7,22,0,0,0,0,0,0,0],"split_type":[0,0,0,1,1,0,0,0,0],"sum_hessian":[7.67E2,7.62E2,5E0,7.29E2,3.3E1,6.01E2,1.28E2,2.1E1,1.2E1],"tree_param":{"num_deleted":"0","num_feature":"23","num_nodes":"9","size_leaf_vector":"1"}},{"base_weights":[9.6211046E-2,-9.774894E0,9.4655174E-1,-1.2284832E1,2.9062927E0,2.775324E1,4.8367253E-1,-3.2247773E-1,-2.6963794E0,3.6983879E0,-1.2266643E0,1.1586044E0,-4.8551198E-2],"categories":[0,2,3,4,5,7,8,9,10,11,12,13,14,15,17,19,20,21,22,23,24,25,26,27,28,29,30,31,32,33,34,6,17,29,32,33],"categories_nodes":[2,3],"categories_segments":[0,31],"categories_sizes":[31,5],"default_left":[0,1,1,1,0,0,0,0,0,0,0,0,0],"id":58,"left_children":[1,3,5,7,-1,9,11,-1,-1,-1,-1,-1,-1],"loss_changes":[6.455693E3,6.3033447E3,8.771624E3,7.6265967E3,0E0,4.886578E3,7.505516E3,0E0,0E0,0E0,0E0,0E0,0E0],"parents":[2147483647,0,0,1,1,2,2,3,3,5,5,6,6],"right_children":[2,4,6,8,-1,10,12,-1,-1,-1,-1,-1,-1],"split_conditions":[1.3E1,3E1,NaN,NaN,2.9062927E0,5.003E3,6.43E0,-3.2247773E-1,-2.6963794E0,3.6983879E0,-1.2266643E0,1.1586044E0,-4.8551198E-2],"split_indices":[17,9,0,0,0,7,12,0,0,0,0,0,0],"split_type":[0,0,1,1,0,0,0,0,0,0,0,0,0],"sum_hessian":[7.67E2,6E1,7.07E2,5.7E1,3E0,1.1E1,6.96E2,3.6E1,2.1E1,9E0,2E0,5.5E1,6.41E2],"tree_param":{"num_deleted":"0","num_feature":"23","num_nodes":"13","size_leaf_vector":"1"}},{"base_weights":[9.110683E-2,-2.218156E0,3.6812859E0,-1.5173618E0,-4.2324158E1,3.9313538E1,2.6991794E0,3.4699726E-1,-4.2054644E-1,-6.687996E-1,-4.645961E0,5.462976E0,-4.4234213E-1,5.8294713E-2,2.0634217E0],"categories":[2,3,5,6,7,8,9,10,12,13,14,15,17,19,20,26,27,28,29,31,33,24,25,29],"categories_nodes":[3,4,5],"categories_segments":[0,21,23],"categories_sizes":[21,2,1],"default_left":[0,1,0,1,1,1,0,0,0,0,0,0,0,0,0],"id":59,"left_children":[1,3,5,7,9,11,13,-1,-1,-1,-1,-1,-1,-1,-1],"loss_changes":[6.3753984E3,1.3089412E4,1.0427279E4,6.1949746E3,8.682529E2,5.6007305E3,1.1146656E4,0E0,0E0,0E0,0E0,0E0,0E0,0E0,0E0],"parents":[2147483647,0,0,1,1,2,2,3,3,4,4,5,5,6,6],"right_children":[2,4,6,8,10,12,14,-1,-1,-1,-1,-1,-1,-1,-1],"split_conditions":[1.2E2,8E1,6.38E0,NaN,NaN,NaN,4E0,3.4699726E-1,-4.2054644E-1,-6.687996E-1,-4.645961E0,5.462976E0,-4.4234213E-1,5.8294713E-2,2.0634217E0],"split_indices":[13,9,12,0,0,0,14,0,0,0,0,0,0,0,0],"split_type":[0,0,0,1,1,1,0,0,0,0,0,0,0,0,0],"sum_hessian":[7.67E2,4.67E2,3E2,4.6E2,7E0,7E0,2.93E2,1.61E2,2.99E2,1E0,6E0,5E0,2E0,2.63E2,3E1],"tree_param":{"num_deleted":"0","num_feature":"23","num_nodes":"15","size_leaf_vector":"1"}},{"base_weights":[8.428254E-2,3.066807E-1,-3.3915016E1,5.5315053E-1,-3.0922868E0,-4.462412E0,4.460701E-1,-9.613909E-3,1.6334094E0],"categories":[],"categories_nodes":[],"categories_segments":[],"categories_sizes":[],"default_left":[0,1,0,0,0,0,0,0,0],"id":60,"left_children":[1,3,5,7,-1,-1,-1,-1,-1],"loss_changes":[5.817542E3,5.897721E3,2.2539028E3,7.77859E3,0E0,0E0,0E0,0E0,0E0],"parents":[2147483647,0,0,1,1,2,2,3,3],"right_children":[2,4,6,8,-1,-1,-1,-1,-1],"split_conditions":[2.408E3,5.5E3,1E0,2.7E3,-3.0922868E0,-4.462412E0,4.460701E-1,-9.613909E-3,1.6334094E0],"split_indices":[21,7,1,22,0,0,0,0,0],"split_type":[0,0,0,0,0,0,0,0,0],"sum_hessian":[7.67E2,7.63E2,4E0,7.58E2,5E0,3E0,1E0,7.29E2,2.9E1],"tree_param":{"num_deleted":"0","num_feature":"23","num_nodes":"9","size_leaf_vector":"1"}},{"base_weights":[6.871325E-2,-3.7841007E-1,1.6810047E1,6.634995E-1,-1.1352712E1,-5.6921825E0,3.228588E1,7.825161E-3,5.0180316E0,1.0578252E0,-3.7291448E0,4.839676E0,-1.8502896E0,5.6434684E0,1.3157147E0],"categories":[11,23,24,26,29,32,34],"categories_nodes":[4],"categories_segments":[0],"categories_sizes":[7],"default_left":[1,1,0,1,1,0,0,0,0,0,0,0,0,0,0],"id":61,"left_children":[1,3,5,7,9,11,13,-1,-1,-1,-1,-1,-1,-1,-1],"loss_changes":[5.7551797E3,8.5717705E3,7.1485933E3,1.9847107E4,3.7370473E4,7.131741E3,4.800712E3,0E0,0E0,0E0,0E0,0E0,0E0,0E0,0E0],"parents":[2147483647,0,0,1,1,2,2,3,3,4,4,5,5,6,6],"right_children":[2,4,6,8,10,12,14,-1,-1,-1,-1,-1,-1,-1,-1],"split_conditions":[1.25E2,3.1E0,4.61E3,3.05E0,NaN,2.376E3,1.5E2,7.825161E-3,5.0180316E0,1.0578252E0,-3.7291448E0,4.839676E0,-1.8502896E0,5.6434684E0,1.3157147E0],"split_indices":[9,6,7,6,0,22,9,0,0,0,0,0,0,0,0],"split_type":[0,0,0,0,1,0,0,0,0,0,0,0,0,0,0],"sum_hessian":[7.67E2,7.48E2,1.9E1,6.84E2,6.4E1,8E0,1.1E1,6.77E2,7E0,3.5E1,2.9E1,1E0,7E0,4E0,7E0],"tree_param":{"num_deleted":"0","num_feature":"23","num_nodes":"15","size_leaf_vector":"1"}},{"base_weights":[7.7864565E-2,-5.1090946E0,1.4404846E0,-3.5546513E0,-3.4199196E1,2.8116976E1,7.6554716E-1,-4.7201824E-1,2.1429312E0,-8.8897246E-1,-3.6544874E0,-3.7312254E-1,4.976369E0,1.9880606E-1,-8.582716E-1],"categories":[6,7,15,17],"categories_nodes":[1],"categories_segments":[0],"categories_sizes":[4],"default_left":[0,1,0,1,0,0,1,0,0,0,0,0,0,0,0],"id":62,"left_children":[1,3,5,7,9,11,13,-1,-1,-1,-1,-1,-1,-1,-1],"loss_changes":[5.4354727E3,7.113461E3,1.0943499E4,4.5564478E3,1.5006934E2,1.05268125E4,6.8169473E3,0E0,0E0,0E0,0E0,0E0,0E0,0E0,0E0],"parents":[2147483647,0,0,1,1,2,2,3,3,4,4,5,5,6,6],"right_children":[2,4,6,8,10,12,14,-1,-1,-1,-1,-1,-1,-1,-1],"split_conditions":[1.6E1,NaN,6.4E0,3E1,6.14E0,4.1E3,3.1E0,-4.7201824E-1,2.1429312E0,-8.8897246E-1,-3.6544874E0,-3.7312254E-1,4.976369E0,1.9880606E-1,-8.582716E-1],"split_indices":[17,0,12,9,12,7,6,0,0,0,0,0,0,0,0],"split_type":[0,1,0,0,0,0,0,0,0,0,0,0,0,0,0],"sum_hessian":[7.67E2,1.59E2,6.08E2,1.52E2,7E0,1.4E1,5.94E2,1.46E2,6E0,1E0,6E0,6E0,8E0,5.26E2,6.8E1],"tree_param":{"num_deleted":"0","num_feature":"23","num_nodes":"15","size_leaf_vector":"1"}},{"base_weights":[7.147721E-2,-3.5868698E-1,1.6177553E1,-4.264567E-2,-2.633957E1,-1.2031722E0,3.3678596E1,-7.395767E-2,1.3237867E0,-1.1485858E0,-2.894265E0,1.1079495E0,-3.7650115E0,1.3940753E0,5.980017E0],"categories":[26,33,1],"categories_nodes":[4,5],"categories_segments":[0,2],"categories_sizes":[2,1],"default_left":[1,1,0,0,1,1,0,0,0,0,0,0,0,0,0],"id":63,"left_children":[1,3,5,7,9,11,13,-1,-1,-1,-1,-1,-1,-1,-1],"loss_changes":[5.3267046E3,6.1489395E3,6.1241367E3,6.868191E3,1.5557617E1,5.341467E3,4.322177E3,0E0,0E0,0E0,0E0,0E0,0E0,0E0,0E0],"parents":[2147483647,0,0,1,1,2,2,3,3,4,4,5,5,6,6],"right_children":[2,4,6,8,10,12,14,-1,-1,-1,-1,-1,-1,-1,-1],"split_conditions":[1.25E2,5.18E3,2E1,2.48E3,NaN,NaN,2.404E3,-7.395767E-2,1.3237867E0,-1.1485858E0,-2.894265E0,1.1079495E0,-3.7650115E0,1.3940753E0,5.980017E0],"split_indices":[9,7,18,22,0,4,22,0,0,0,0,0,0,0,0],"split_type":[0,0,0,0,1,1,0,0,0,0,0,0,0,0,0],"sum_hessian":[7.67E2,7.48E2,1.9E1,7.4E2,8E0,1E1,9E0,7.04E2,3.6E1,2E0,6E0,8E0,2E0,6E0,3E0],"tree_param":{"num_deleted":"0","num_feature":"23","num_nodes":"15","size_leaf_vector":"1"}},{"base_weights":[6.683153E-2,-8.0721325E-1,7.700048E0,-4.004015E-1,-2.8430374E1,4.1389454E1,2.7772748E0,2.0559123E0,-7.7519834E-2,-9.7274476E-1,-6.882806E0,1.4284205E0,7.847627E0,6.8463343E-1,-1.5590626E0],"categories":[0,2,3,4,5,6,7,9,10,11,12,13,14,15,17,19,20,21,22,23,24,25,26,27,28,29,30,31,32,33,34,29,33,7,8,20,26],"categories_nodes":[3,4,6],"categories_segments":[0,31,33],"categories_sizes":[31,2,4],"default_left":[0,0,0,1,1,0,1,0,0,0,0,0,0,0,0],"id":64,"left_children":[1,3,5,7,9,11,13,-1,-1,-1,-1,-1,-1,-1,-1],"loss_changes":[5.130137E3,7.7424414E3,1.2986829E4,5.365576E3,6.886027E3,8.931502E3,5.338544E3,0E0,0E0,0E0,0E0,0E0,0E0,0E0,0E0],"parents":[2147483647,0,0,1,1,2,2,3,3,4,4,5,5,6,6],"right_children":[2,4,6,8,10,12,14,-1,-1,-1,-1,-1,-1,-1,-1],"split_conditions":[1.08E2,2.4E3,2.376E3,NaN,NaN,2.6E0,NaN,2.0559123E0,-7.7519834E-2,-9.7274476E-1,-6.882806E0,1.4284205E0,7.847627E0,6.8463343E-1,-1.5590626E0],"split_indices":[17,21,22,0,0,6,0,0,0,0,0,0,0,0,0],"split_type":[0,0,0,1,1,0,1,0,0,0,0,0,0,0,0],"sum_hessian":[7.67E2,6.89E2,7.8E1,6.8E2,9E0,9E0,6.9E1,1.1E1,6.69E2,7E0,2E0,6E0,3E0,5.7E1,1.2E1],"tree_param":{"num_deleted":"0","num_feature":"23","num_nodes":"15","size_leaf_vector":"1"}},{"base_weights":[6.343236E-2,3.466809E-1,-2.3862381E1,5.1115612E1,1.0448971E-2,-3.5091498E0,-6.339913E0,9.3465275E-1,5.9221253E0,-1.19643606E-1,7.1852297E-1,9.3979496E-1,-7.226658E-1],"categories":[0,1,2,3,4,5,6,7,8,9,10,11,12,13,14,15,17,19,20,21,22,23,24,25,26,27,28,29,30,31,32,33,7,34,9,10,16],"categories_nodes":[1,2,5],"categories_segments":[0,32,34],"categories_sizes":[32,2,3],"default_left":[0,1,1,0,0,1,0,0,0,0,0,0,0],"id":65,"left_children":[1,3,5,7,9,11,-1,-1,-1,-1,-1,-1,-1],"loss_changes":[5.2129717E3,1.297277E4,7.0198286E3,1.1393125E3,6.5549023E3,4.037915E2,0E0,0E0,0E0,0E0,0E0,0E0,0E0],"parents":[2147483647,0,0,1,1,2,2,3,3,4,4,5,5],"right_children":[2,4,6,8,10,12,-1,-1,-1,-1,-1,-1,-1],"split_conditions":[6.81E0,NaN,NaN,4.015E3,4E0,NaN,-6.339913E0,9.3465275E-1,5.9221253E0,-1.19643606E-1,7.1852297E-1,9.3979496E-1,-7.226658E-1],"split_indices":[12,0,0,7,14,0,0,0,0,0,0,0,0],"split_type":[0,1,1,0,0,1,0,0,0,0,0,0,0],"sum_hessian":[7.67E2,7.59E2,8E0,4E0,7.55E2,6E0,2E0,1E0,3E0,6.47E2,1.08E2,1E0,5E0],"tree_param":{"num_deleted":"0","num_feature":"23","num_nodes":"13","size_leaf_vector":"1"}},{"base_weights":[5.8819193E-2,-1.9270751E0,3.1463265E0,-1.2949591E0,-3.8111885E1,2.264851E1,1.8258749E0,-4.439446E-2,-1.4957786E0,-6.3961107E-1,-4.172898E0,1.0970481E1,1.1717339E0,3.647967E0,4.228799E-2],"categories":[2,3,5,6,7,8,15,17,28,24,25],"categories_nodes":[3,4],"categories_segments":[0,9],"categories_sizes":[9,2],"default_left":[0,1,0,1,1,0,0,0,0,0,0,0,0,0,0],"id":66,"left_children":[1,3,5,7,9,11,13,-1,-1,-1,-1,-1,-1,-1,-1],"loss_changes":[4.715027E3,1.0655211E4,7.7099053E3,5.3535273E3,6.5084863E2,1.6795469E4,1.3743781E4,0E0,0E0,0E0,0E0,0E0,0E0,0E0,0E0],"parents":[2147483647,0,0,1,1,2,2,3,3,4,4,5,5,6,6],"right_children":[2,4,6,8,10,12,14,-1,-1,-1,-1,-1,-1,-1,-1],"split_conditions":[1.2E2,8E1,2.388E3,NaN,NaN,1.01E1,6.43E0,-4.439446E-2,-1.4957786E0,-6.3961107E-1,-4.172898E0,1.0970481E1,1.1717339E0,3.647967E0,4.228799E-2],"split_indices":[13,9,22,0,0,18,12,0,0,0,0,0,0,0,0],"split_type":[0,0,0,1,1,0,0,0,0,0,0,0,0,0,0],"sum_hessian":[7.67E2,4.67E2,3E2,4.6E2,7E0,1.8E1,2.82E2,4.34E2,2.6E1,1E0,6E0,1E0,1.7E1,1E1,2.72E2],"tree_param":{"num_deleted":"0","num_feature":"23","num_nodes":"15","size_leaf_vector":"1"}},{"base_weights":[6.527763E-2,-8.106175E0,7.692231E-1,-1.0159883E1,2.3699114E1,1.0683151E0,-2.5534874E1,-3.6123356E-1,-2.7121422E0,2.929017E0,3.462971E-1,3.23272E0,5.2313413E-2,-4.7024843E-1,-5.868803E0],"categories":[6,17,29,32,0,1,2,3,4,5,6,7,8,9,10,11,12,13,14,15,16,17,18,19,20,21,22,23,24,25,26,27,28,30,31,32,33,34,0,2,3,4,5,7,8,9,10,11,12,13,14,15,17,19,20,21,22,23,24,25,26,27,28,29,30,31,32,33,7,34],"categories_nodes":[3,4,5,6],"categories_segments":[0,4,38,68],"categories_sizes":[4,34,30,2],"default_left":[0,0,0,1,1,1,1,0,0,0,0,0,0,0,0],"id":67,"left_children":[1,3,5,7,9,11,13,-1,-1,-1,-1,-1,-1,-1,-1],"loss_changes":[4.4239697E3,4.2252227E3,5.597361E3,6.3433037E3,3.5113477E2,1.1929356E4,5.249296E3,0E0,0E0,0E0,0E0,0E0,0E0,0E0,0E0],"parents":[2147483647,0,0,1,1,2,2,3,3,4,4,5,5,6,6],"right_children":[2,4,6,8,10,12,14,-1,-1,-1,-1,-1,-1,-1,-1],"split_conditions":[1.3E1,6.62E0,6.81E0,NaN,NaN,NaN,NaN,-3.6123356E-1,-2.7121422E0,2.929017E0,3.462971E-1,3.23272E0,5.2313413E-2,-4.7024843E-1,-5.868803E0],"split_indices":[17,12,12,0,0,0,0,0,0,0,0,0,0,0,0],"split_type":[0,0,0,1,1,1,1,0,0,0,0,0,0,0,0],"sum_hessian":[7.67E2,6E1,7.07E2,5.7E1,3E0,7E2,7E0,4.2E1,1.5E1,2E0,1E0,1.1E1,6.89E2,5E0,2E0],"tree_param":{"num_deleted":"0","num_feature":"23","num_nodes":"15","size_leaf_vector":"1"}},{"base_weights":[5.5040825E-2,2.4762827E-1,-2.9383327E1,-6.005838E-2,1.802707E1,-3.9085941E0,4.713562E-1,8.251562E-2,-8.181688E-1,-2.2259238E0,2.737542E0],"categories":[],"categories_nodes":[],"categories_segments":[],"categories_sizes":[],"default_left":[0,0,0,1,0,0,0,0,0,0,0],"id":68,"left_children":[1,3,5,7,9,-1,-1,-1,-1,-1,-1],"loss_changes":[4.3614214E3,4.180542E3,1.8383789E3,5.413169E3,5.505292E3,0E0,0E0,0E0,0E0,0E0,0E0],"parents":[2147483647,0,0,1,1,2,2,3,3,4,4],"right_children":[2,4,6,8,10,-1,-1,-1,-1,-1,-1],"split_conditions":[2.408E3,2E2,1E0,3.1E0,4.31E3,-3.9085941E0,4.713562E-1,8.251562E-2,-8.181688E-1,-2.2259238E0,2.737542E0],"split_indices":[21,17,1,6,7,0,0,0,0,0,0],"split_type":[0,0,0,0,0,0,0,0,0,0,0],"sum_hessian":[7.67E2,7.63E2,4E0,7.51E2,1.2E1,3E0,1E0,6.78E2,7.3E1,2E0,1E1],"tree_param":{"num_deleted":"0","num_feature":"23","num_nodes":"11","size_leaf_vector":"1"}},{"base_weights":[4.4767797E-2,-3.3673847E-1,1.4329939E1,2.3312111E-1,-1.3542942E1,-6.489573E0,2.8750412E1,1.1951264E-1,-1.096061E0,3.2404144E0,-3.0933414E0,3.3138874E0,-2.2546113E0,5.0538173E0,1.1539261E0],"categories":[20,23,26,32,33,20,24,27,33],"categories_nodes":[4,5],"categories_segments":[0,5],"categories_sizes":[5,4],"default_left":[1,0,0,1,1,1,0,0,0,0,0,0,0,0,0],"id":69,"left_children":[1,3,5,7,9,11,13,-1,-1,-1,-1,-1,-1,-1,-1],"loss_changes":[4.1903354E3,5.6398926E3,6.191122E3,7.755599E3,2.5772658E4,6.473814E3,3.9167354E3,0E0,0E0,0E0,0E0,0E0,0E0,0E0,0E0],"parents":[2147483647,0,0,1,1,2,2,3,3,4,4,5,5,6,6],"right_children":[2,4,6,8,10,12,14,-1,-1,-1,-1,-1,-1,-1,-1],"split_conditions":[1.25E2,1.44E2,4.61E3,3.1E0,NaN,NaN,1.5E2,1.1951264E-1,-1.096061E0,3.2404144E0,-3.0933414E0,3.3138874E0,-2.2546113E0,5.0538173E0,1.1539261E0],"split_indices":[9,13,7,6,0,0,9,0,0,0,0,0,0,0,0],"split_type":[0,0,0,0,1,1,0,0,0,0,0,0,0,0,0],"sum_hessian":[7.67E2,7.48E2,1.9E1,7.18E2,3E1,8E0,1.1E1,6.62E2,5.6E1,8E0,2.2E1,2E0,6E0,4E0,7E0],"tree_param":{"num_deleted":"0","num_feature":"23","num_nodes":"15","size_leaf_vector":"1"}},{"base_weights":[4.8677813E-2,-1.8698702E0,3.0315075E0,-1.2944462E0,-3.4794937E1,-7.9333395E-1,9.973681E0,3.0622184E-1,-3.6427304E-1,-5.942192E-1,-3.8067873E0,-3.9093766E-1,1.8740168E0,3.2911255E0,-3.6656797E-1],"categories":[2,3,5,6,7,8,9,10,12,13,14,15,17,19,20,26,27,28,29,31,33,24,25],"categories_nodes":[3,4],"categories_segments":[0,21],"categories_sizes":[21,2],"default_left":[0,1,0,1,1,0,1,0,0,0,0,0,0,0,0],"id":70,"left_children":[1,3,5,7,9,11,13,-1,-1,-1,-1,-1,-1,-1,-1],"loss_changes":[4.4007036E3,8.821625E3,8.0002793E3,4.727501E3,5.292588E2,1.1942372E4,3.3596E4,0E0,0E0,0E0,0E0,0E0,0E0,0E0,0E0],"parents":[2147483647,0,0,1,1,2,2,3,3,4,4,5,5,6,6],"right_children":[2,4,6,8,10,12,14,-1,-1,-1,-1,-1,-1,-1,-1],"split_conditions":[1.2E2,8E1,3E0,NaN,NaN,4E0,3.1E0,3.0622184E-1,-3.6427304E-1,-5.942192E-1,-3.8067873E0,-3.9093766E-1,1.8740168E0,3.2911255E0,-3.6656797E-1],"split_indices":[13,9,6,0,0,14,6,0,0,0,0,0,0,0,0],"split_type":[0,0,0,1,1,0,0,0,0,0,0,0,0,0,0],"sum_hessian":[7.67E2,4.67E2,3E2,4.6E2,7E0,1.94E2,1.06E2,1.61E2,2.99E2,1E0,6E0,1.68E2,2.6E1,3.9E1,6.7E1],"tree_param":{"num_deleted":"0","num_feature":"23","num_nodes":"15","size_leaf_vector":"1"}},{"base_weights":[4.374062E-2,2.454072E-1,-2.5608816E0,-1.3528385E0,4.0016103E0,-2.1944018E-1,1.5936491E0,5.595641E0,1.8579973E-1],"categories":[0,1,2,3,4,5,7,8,9,10,11,12,13,14,15,17,18,19,20,21,23,24,25,26,27,28,30,32,33,34],"categories_nodes":[4],"categories_segments":[0],"categories_sizes":[30],"default_left":[1,1,0,0,1,0,0,0,0],"id":71,"left_children":[1,3,-1,5,7,-1,-1,-1,-1],"loss_changes":[3.9793503E3,4.585958E3,0E0,7.833806E3,2.5288617E4,0E0,0E0,0E0,0E0],"parents":[2147483647,0,0,1,1,3,3,4,4],"right_children":[2,4,-1,6,8,-1,-1,-1,-1],"split_conditions":[5.5E3,4.5E1,-2.5608816E0,2.56E2,NaN,-2.1944018E-1,1.5936491E0,5.595641E0,1.8579973E-1],"split_indices":[7,9,0,11,0,0,0,0,0],"split_type":[0,0,0,0,1,0,0,0,0],"sum_hessian":[7.67E2,7.62E2,5E0,5.35E2,2.27E2,5.11E2,2.4E1,8E0,2.19E2],"tree_param":{"num_deleted":"0","num_feature":"23","num_nodes":"9","size_leaf_vector":"1"}},{"base_weights":[4.5350123E-2,2.8767723E-1,-2.0422867E1,4.2233215E1,9.879117E-3,-3.078684E0,-5.4085E0,5.525641E0,1.5132283E0,3.4244698E-1,-1.7349215E-1,9.346207E-1,-6.7072004E-1],"categories":[0,1,2,3,4,5,6,7,8,9,10,11,12,13,14,15,17,19,20,21,22,23,24,25,26,27,28,29,30,31,32,33,7,34,9,10,16],"categories_nodes":[1,2,5],"categories_segments":[0,32,34],"categories_sizes":[32,2,3],"default_left":[0,1,1,0,1,1,0,0,0,0,0,0,0],"id":72,"left_children":[1,3,5,7,9,11,-1,-1,-1,-1,-1,-1,-1],"loss_changes":[3.8151577E3,8.8554E3,5.0880693E3,9.285469E2,4.5100225E3,3.782743E2,0E0,0E0,0E0,0E0,0E0,0E0,0E0],"parents":[2147483647,0,0,1,1,2,2,3,3,4,4,5,5],"right_children":[2,4,6,8,10,12,-1,-1,-1,-1,-1,-1,-1],"split_conditions":[6.81E0,NaN,NaN,6.6E1,5E3,NaN,-5.4085E0,5.525641E0,1.5132283E0,3.4244698E-1,-1.7349215E-1,9.346207E-1,-6.7072004E-1],"split_indices":[12,0,0,9,7,0,0,0,0,0,0,0,0],"split_type":[0,1,1,0,0,1,0,0,0,0,0,0,0],"sum_hessian":[7.67E2,7.59E2,8E0,4E0,7.55E2,6E0,2E0,2E0,2E0,2.55E2,5E2,1E0,5E0],"tree_param":{"num_deleted":"0","num_feature":"23","num_nodes":"13","size_leaf_vector":"1"}},{"base_weights":[4.3501038E-2,-7.1981726E0,6.896511E-1,-5.369232E0,-3.2832735E0,1.1295238E0,-1.1857129E1,-6.995283E-1,1.3916377E0,-5.714909E-2,5.071055E-1,8.3572465E-1,-2.6892917E0],"categories":[],"categories_nodes":[],"categories_segments":[],"categories_sizes":[],"default_left":[0,0,1,0,0,1,0,0,0,0,0,0,0],"id":73,"left_children":[1,3,5,7,-1,9,11,-1,-1,-1,-1,-1,-1],"loss_changes":[3.5985955E3,2.7774102E3,3.9097974E3,1.9789111E3,0E0,4.582142E3,7.519287E3,0E0,0E0,0E0,0E0,0E0,0E0],"parents":[2147483647,0,0,1,1,2,2,3,3,5,5,6,6],"right_children":[2,4,6,8,-1,10,12,-1,-1,-1,-1,-1,-1],"split_conditions":[6.4E1,2.36E0,5.08E3,4E0,-3.2832735E0,6E1,2.412E3,-6.995283E-1,1.3916377E0,-5.714909E-2,5.071055E-1,8.3572465E-1,-2.6892917E0],"split_indices":[11,6,7,10,0,9,22,0,0,0,0,0,0],"split_type":[0,0,0,0,0,0,0,0,0,0,0,0,0],"sum_hessian":[7.67E2,6.2E1,7.05E2,5.9E1,3E0,6.82E2,2.3E1,5.5E1,4E0,4.77E2,2.05E2,1E1,1.3E1],"tree_param":{"num_deleted":"0","num_feature":"23","num_nodes":"13","size_leaf_vector":"1"}},{"base_weights":[3.3949465E-2,2.0805761E-1,-2.6576565E1,4.0999925E-1,-2.1689058E1,-3.563336E0,4.825302E-1,6.3918464E-2,-1.8734334E0,-2.6244783E0,-1.1711069E0],"categories":[2,3,15,17],"categories_nodes":[1],"categories_segments":[0],"categories_sizes":[4],"default_left":[0,1,0,0,1,0,0,0,0,0,0],"id":74,"left_children":[1,3,5,7,9,-1,-1,-1,-1,-1,-1],"loss_changes":[3.5637559E3,3.3872542E3,1.5939426E3,3.3377756E3,1.0844238E1,0E0,0E0,0E0,0E0,0E0,0E0],"parents":[2147483647,0,0,1,1,2,2,3,3,4,4],"right_children":[2,4,6,8,10,-1,-1,-1,-1,-1,-1],"split_conditions":[2.408E3,NaN,1E0,6.81E0,2E0,-3.563336E0,4.825302E-1,6.3918464E-2,-1.8734334E0,-2.6244783E0,-1.1711069E0],"split_indices":[21,0,1,12,6,0,0,0,0,0,0],"split_type":[0,1,0,0,0,0,0,0,0,0,0],"sum_hessian":[7.67E2,7.63E2,4E0,7.57E2,6E0,3E0,1E0,7.49E2,8E0,3E0,3E0],"tree_param":{"num_deleted":"0","num_feature":"23","num_nodes":"11","size_leaf_vector":"1"}},{"base_weights":[1.92507E-2,-3.14312E-1,1.2510211E1,1.968962E-1,-1.2160905E1,-6.772461E0,2.5929697E1,1.06321275E-1,-9.8831874E-1,2.6203063E0,-2.9046304E0,4.0625186E0,-1.7775315E0,4.601216E0,1.0136948E0],"categories":[20,23,26,33],"categories_nodes":[4],"categories_segments":[0],"categories_sizes":[4],"default_left":[1,0,0,1,1,0,0,0,0,0,0,0,0,0,0],"id":75,"left_children":[1,3,5,7,9,11,13,-1,-1,-1,-1,-1,-1,-1,-1],"loss_changes":[3.203818E3,4.538395E3,5.35088E3,6.2892065E3,2.0842621E4,5.4157095E3,3.3394644E3,0E0,0E0,0E0,0E0,0E0,0E0,0E0,0E0],"parents":[2147483647,0,0,1,1,2,2,3,3,4,4,5,5,6,6],"right_children":[2,4,6,8,10,12,14,-1,-1,-1,-1,-1,-1,-1,-1],"split_conditions":[1.25E2,1.44E2,4.61E3,3.1E0,NaN,2.376E3,1.5E2,1.06321275E-1,-9.8831874E-1,2.6203063E0,-2.9046304E0,4.0625186E0,-1.7775315E0,4.601216E0,1.0136948E0],"split_indices":[9,13,7,6,0,22,9,0,0,0,0,0,0,0,0],"split_type":[0,0,0,0,1,0,0,0,0,0,0,0,0,0,0],"sum_hessian":[7.67E2,7.48E2,1.9E1,7.18E2,3E1,8E0,1.1E1,6.62E2,5.6E1,9E0,2.1E1,1E0,7E0,4E0,7E0],"tree_param":{"num_deleted":"0","num_feature":"23","num_nodes":"15","size_leaf_vector":"1"}},{"base_weights":[2.6092043E-2,1.8735515E-1,-2.4620129E1,-6.6247454E0,7.984306E-1,-3.30406E1,4.5308763E-1,-4.9675924E-1,-2.9825854E0,4.7616506E-1,-5.9785333E-2,-1.5013555E0,-4.3560867E0],"categories":[29],"categories_nodes":[5],"categories_segments":[0],"categories_sizes":[1],"default_left":[0,0,0,0,0,1,0,0,0,0,0,0,0],"id":76,"left_children":[1,3,5,7,9,11,-1,-1,-1,-1,-1,-1,-1],"loss_changes":[3.0570488E3,3.185598E3,1.3770288E3,2.274048E3,3.88756E3,1.0459375E2,0E0,0E0,0E0,0E0,0E0,0E0,0E0],"parents":[2147483647,0,0,1,1,2,2,3,3,4,4,5,5],"right_children":[2,4,6,8,10,12,-1,-1,-1,-1,-1,-1,-1],"split_conditions":[2.408E3,6.4E1,1E0,2.36E0,2.388E3,NaN,4.5308763E-1,-4.9675924E-1,-2.9825854E0,4.7616506E-1,-5.9785333E-2,-1.5013555E0,-4.3560867E0],"split_indices":[21,11,1,6,22,0,0,0,0,0,0,0,0],"split_type":[0,0,0,0,0,1,0,0,0,0,0,0,0],"sum_hessian":[7.67E2,7.63E2,4E0,6.2E1,7.01E2,3E0,1E0,5.9E1,3E0,1.82E2,5.19E2,2E0,1E0],"tree_param":{"num_deleted":"0","num_feature":"23","num_nodes":"13","size_leaf_vector":"1"}},{"base_weights":[1.2459695E-2,-1.5687039E0,2.4708388E0,-1.0309187E0,-3.2362484E1,3.2341385E0,-2.5889284E1,-3.7575595E-3,-9.991784E-1,-4.7427368E-1,-3.5630627E0,5.0330544E-3,9.800219E-1,-4.341506E0,2.4902534E-1],"categories":[2,3,5,6,7,8,10,13,15,17,28,24,25],"categories_nodes":[3,4],"categories_segments":[0,11],"categories_sizes":[11,2],"default_left":[0,1,0,1,1,0,0,0,0,0,0,0,0,0,0],"id":77,"left_children":[1,3,5,7,9,11,13,-1,-1,-1,-1,-1,-1,-1,-1],"loss_changes":[2.9891682E3,7.716921E3,6.5995596E3,4.1030845E3,5.531367E2,6.145617E3,4.0871016E3,0E0,0E0,0E0,0E0,0E0,0E0,0E0,0E0],"parents":[2147483647,0,0,1,1,2,2,3,3,4,4,5,5,6,6],"right_children":[2,4,6,8,10,12,14,-1,-1,-1,-1,-1,-1,-1,-1],"split_conditions":[1.2E2,8E1,4.8E2,NaN,NaN,2.5E1,6.6E0,-3.7575595E-3,-9.991784E-1,-4.7427368E-1,-3.5630627E0,5.0330544E-3,9.800219E-1,-4.341506E0,2.4902534E-1],"split_indices":[13,9,9,0,0,18,12,0,0,0,0,0,0,0,0],"split_type":[0,0,0,1,1,0,0,0,0,0,0,0,0,0,0],"sum_hessian":[7.67E2,4.67E2,3E2,4.6E2,7E0,2.93E2,7E0,4.15E2,4.5E1,1E0,6E0,1.98E2,9.5E1,4E0,3E0],"tree_param":{"num_deleted":"0","num_feature":"23","num_nodes":"15","size_leaf_vector":"1"}},{"base_weights":[6.047885E-4,-6.0174217E0,6.1275274E-1,1.8968785E0,-3.56906E1,5.1348653E0,3.9318314E-1,5.3550477E0,-3.0118924E-1,1.0594134E0,-5.3484516E0,-8.921689E-2,8.062803E-1],"categories":[0,1,2,3,4,5,6,7,8,9,10,11,12,13,14,15,16,17,19,20,21,22,23,24,25,26,27,28,29,30,31,32,33,0,1,2,3,4,5,6,7,8,9,10,11,12,13,14,15,16,17,18,19,22,23,24,25,26,27,28,29,30,31,32,33,34,20,24,27,32,33,34],"categories_nodes":[2,3,4],"categories_segments":[0,33,66],"categories_sizes":[33,33,6],"default_left":[0,1,1,1,1,0,0,0,0,0,0,0,0],"id":78,"left_children":[1,3,5,7,9,-1,11,-1,-1,-1,-1,-1,-1],"loss_changes":[2.83294E3,1.6741514E4,7.755574E3,1.4613962E4,1.2920424E4,0E0,6.8684736E3,0E0,0E0,0E0,0E0,0E0,0E0],"parents":[2147483647,0,0,1,1,2,2,3,3,4,4,6,6],"right_children":[2,4,6,8,10,-1,12,-1,-1,-1,-1,-1,-1],"split_conditions":[4.25E3,2.5E0,NaN,NaN,NaN,5.1348653E0,4E0,5.3550477E0,-3.0118924E-1,1.0594134E0,-5.3484516E0,-8.921689E-2,8.062803E-1],"split_indices":[7,6,0,0,0,0,14,0,0,0,0,0,0],"split_type":[0,0,1,1,1,0,0,0,0,0,0,0,0],"sum_hessian":[7.67E2,7E1,6.97E2,5.6E1,1.4E1,2E0,6.95E2,4E0,5.2E1,4E0,1E1,5.96E2,9.9E1],"tree_param":{"num_deleted":"0","num_feature":"23","num_nodes":"13","size_leaf_vector":"1"}},{"base_weights":[9.159009E-3,2.6964405E0,-1.3635371E0,-7.482489E-1,1.5549341E1,-1.6202383E0,6.4520354E0,4.187956E-1,-1.2019126E0,4.9449906E0,4.9387202E-1,-4.843852E-2,-1.3587317E0],"categories":[5,6,8,11,17,20,22,26,27,34,0,1,2,3,4,5,7,8,9,10,11,12,13,14,15,16,17,18,19,20,21,23,24,25,27,28,30,32,34],"categories_nodes":[3,4],"categories_segments":[0,10],"categories_sizes":[10,29],"default_left":[1,0,0,1,1,0,0,0,0,0,0,0,0],"id":79,"left_children":[1,3,5,7,9,11,-1,-1,-1,-1,-1,-1,-1],"loss_changes":[2.836691E3,1.1522939E4,8.712991E3,1.1511219E4,1.9539615E4,6.8985835E3,0E0,0E0,0E0,0E0,0E0,0E0,0E0],"parents":[2147483647,0,0,1,1,2,2,3,3,4,4,5,5],"right_children":[2,4,6,8,10,12,-1,-1,-1,-1,-1,-1,-1],"split_conditions":[5E3,4.62E3,2E2,NaN,NaN,3.1E0,6.4520354E0,4.187956E-1,-1.2019126E0,4.9449906E0,4.9387202E-1,-4.843852E-2,-1.3587317E0],"split_indices":[7,7,17,0,0,6,0,0,0,0,0,0,0],"split_type":[0,0,0,1,1,0,0,0,0,0,0,0,0],"sum_hessian":[7.67E2,2.59E2,5.08E2,2.05E2,5.4E1,5.07E2,1E0,1.43E2,6.2E1,1.2E1,4.2E1,4.64E2,4.3E1],"tree_param":{"num_deleted":"0","num_feature":"23","num_nodes":"13","size_leaf_vector":"1"}},{"base_weights":[2.0869732E-2,-2.9041392E-1,1.1677399E1,-3.898634E-2,-2.0959015E1,-5.6781073E0,2.3720911E1,-4.8464958E-2,1.0919527E0,-7.2278774E-1,-2.3849645E0,3.0447092E0,-2.0349178E0,4.251514E0,9.009407E-1],"categories":[16,33,20,24,27,33],"categories_nodes":[4,5],"categories_segments":[0,2],"categories_sizes":[2,4],"default_left":[1,1,0,0,1,1,0,0,0,0,0,0,0,0,0],"id":80,"left_children":[1,3,5,7,9,11,13,-1,-1,-1,-1,-1,-1,-1,-1],"loss_changes":[2.7900693E3,3.8914783E3,4.3151147E3,3.6241926E3,1.8484229E2,5.3895317E3,2.9348604E3,0E0,0E0,0E0,0E0,0E0,0E0,0E0,0E0],"parents":[2147483647,0,0,1,1,2,2,3,3,4,4,5,5,6,6],"right_children":[2,4,6,8,10,12,14,-1,-1,-1,-1,-1,-1,-1,-1],"split_conditions":[1.25E2,5.18E3,4.61E3,2.7E3,NaN,NaN,1.5E2,-4.8464958E-2,1.0919527E0,-7.2278774E-1,-2.3849645E0,3.0447092E0,-2.0349178E0,4.251514E0,9.009407E-1],"split_indices":[9,7,7,22,0,0,9,0,0,0,0,0,0,0,0],"split_type":[0,0,0,0,1,1,0,0,0,0,0,0,0,0,0],"sum_hessian":[7.67E2,7.48E2,1.9E1,7.4E2,8E0,8E0,1.1E1,7.12E2,2.8E1,2E0,6E0,2E0,6E0,4E0,7E0],"tree_param":{"num_deleted":"0","num_feature":"23","num_nodes":"15","size_leaf_vector":"1"}},{"base_weights":[2.4114856E-2,1.7361964E-1,-2.2825039E1,1.3781288E0,-2.7547102E0,-3.073093E1,4.3992615E-1,1.3642626E0,2.9392837E-2,-2.563791E-2,-2.9565406E0,-1.3886074E0,-4.0632753E0],"categories":[1,3,5,6,8,9,10,2,3,5,7,8,9,10,11,12,13,14,15,16,17,19,20,22,23,25,26,27,28,29,30,31,32,33,34,3,11,15,17,24,29],"categories_nodes":[1,3,4,5],"categories_segments":[0,7,35,40],"categories_sizes":[7,28,5,1],"default_left":[0,1,0,1,1,1,0,0,0,0,0,0,0],"id":81,"left_children":[1,3,5,7,9,11,-1,-1,-1,-1,-1,-1,-1],"loss_changes":[2.6274954E3,2.6985771E3,1.2113552E3,7.2030576E3,1.4929405E4,1.0294971E2,0E0,0E0,0E0,0E0,0E0,0E0,0E0],"parents":[2147483647,0,0,1,1,2,2,3,3,4,4,5,5],"right_children":[2,4,6,8,10,12,-1,-1,-1,-1,-1,-1,-1],"split_conditions":[2.408E3,NaN,1E0,NaN,NaN,NaN,4.3992615E-1,1.3642626E0,2.9392837E-2,-2.563791E-2,-2.9565406E0,-1.3886074E0,-4.0632753E0],"split_indices":[21,4,1,0,0,0,0,0,0,0,0,0,0],"split_type":[0,1,0,1,1,1,0,0,0,0,0,0,0],"sum_hessian":[7.67E2,7.63E2,4E0,5.41E2,2.22E2,3E0,1E0,4.3E1,4.98E2,2.04E2,1.8E1,2E0,1E0],"tree_param":{"num_deleted":"0","num_feature":"23","num_nodes":"13","size_leaf_vector":"1"}},{"base_weights":[1.3108681E-2,-6.1571174E0,5.447057E-1,-3.3208525E0,-2.4532265E1,8.827538E0,-2.3584598E-1,-6.7399246E-1,1.7181301E0,7.883362E-1,-3.6651368E0,3.8433847E-1,4.6727667E0,4.0399057E-1,-1.8139486E-1],"categories":[3,7],"categories_nodes":[1],"categories_segments":[0],"categories_sizes":[2],"default_left":[0,1,0,0,0,1,0,0,0,0,0,0,0,0,0],"id":82,"left_children":[1,3,5,7,9,11,13,-1,-1,-1,-1,-1,-1,-1,-1],"loss_changes":[2.5224502E3,3.0976558E3,4.579428E3,3.9011106E3,3.4317217E3,1.1343311E4,4.3797563E3,0E0,0E0,0E0,0E0,0E0,0E0,0E0,0E0],"parents":[2147483647,0,0,1,1,2,2,3,3,4,4,5,5,6,6],"right_children":[2,4,6,8,10,12,14,-1,-1,-1,-1,-1,-1,-1,-1],"split_conditions":[1.3E1,NaN,6.43E0,2.376E3,2.05E0,2.85E0,2.388E3,-6.7399246E-1,1.7181301E0,7.883362E-1,-3.6651368E0,3.8433847E-1,4.6727667E0,4.0399057E-1,-1.8139486E-1],"split_indices":[17,4,12,22,6,6,22,0,0,0,0,0,0,0,0],"split_type":[0,1,0,0,0,0,0,0,0,0,0,0,0,0,0],"sum_hessian":[7.67E2,6E1,7.07E2,5.3E1,7E0,6E1,6.47E2,4.6E1,7E0,2E0,5E0,5.4E1,6E0,1.74E2,4.73E2],"tree_param":{"num_deleted":"0","num_feature":"23","num_nodes":"15","size_leaf_vector":"1"}},{"base_weights":[1.628708E-2,1.5948834E-1,-2.1868122E1,-3.377199E0,1.0945469E0,-2.9323803E1,3.9773026E-1,-4.4732954E-2,-1.4639201E0,8.6073107E-1,-3.9235204E-2,-1.322966E0,-3.8803117E0],"categories":[1,3,6,7,8,29],"categories_nodes":[3,5],"categories_segments":[0,5],"categories_sizes":[5,1],"default_left":[0,0,0,1,0,1,0,0,0,0,0,0,0],"id":83,"left_children":[1,3,5,7,9,11,-1,-1,-1,-1,-1,-1,-1],"loss_changes":[2.4103037E3,2.530252E3,1.080106E3,5.272843E3,6.761663E3,9.6893555E1,0E0,0E0,0E0,0E0,0E0,0E0,0E0],"parents":[2147483647,0,0,1,1,2,2,3,3,4,4,5,5],"right_children":[2,4,6,8,10,12,-1,-1,-1,-1,-1,-1,-1],"split_conditions":[2.408E3,1.6E1,1E0,NaN,2.388E3,NaN,3.9773026E-1,-4.4732954E-2,-1.4639201E0,8.6073107E-1,-3.9235204E-2,-1.322966E0,-3.8803117E0],"split_indices":[21,17,1,4,22,0,0,0,0,0,0,0,0],"split_type":[0,0,0,1,0,1,0,0,0,0,0,0,0],"sum_hessian":[7.67E2,7.63E2,4E0,1.59E2,6.04E2,3E0,1E0,1.27E2,3.2E1,9.9E1,5.05E2,2E0,1E0],"tree_param":{"num_deleted":"0","num_feature":"23","num_nodes":"13","size_leaf_vector":"1"}},{"base_weights":[7.5092018E-3,-1.4120342E0,2.2146149E0,-9.5453435E-1,-2.7598959E1,-9.424206E-1,7.9473934E0,6.79761E-2,-5.076651E-1,-4.7646713E-1,-3.0180333E0,9.0382576E-1,-5.663025E-1,4.5015664E0,1.4143528E-1],"categories":[2,3,5,6,7,8,10,12,13,15,17,28,31,33,24,25,6,20,22,24,25,26,28,29,30,31,33],"categories_nodes":[3,4,5],"categories_segments":[0,14,16],"categories_sizes":[14,2,11],"default_left":[0,1,0,1,1,1,0,0,0,0,0,0,0,0,0],"id":84,"left_children":[1,3,5,7,9,11,13,-1,-1,-1,-1,-1,-1,-1,-1],"loss_changes":[2.4093342E3,5.5805366E3,5.455164E3,3.109095E3,3.2775195E2,9.238574E3,2.5848365E4,0E0,0E0,0E0,0E0,0E0,0E0,0E0,0E0],"parents":[2147483647,0,0,1,1,2,2,3,3,4,4,5,5,6,6],"right_children":[2,4,6,8,10,12,14,-1,-1,-1,-1,-1,-1,-1,-1],"split_conditions":[1.2E2,8E1,3E0,NaN,NaN,NaN,6.62E0,6.79761E-2,-5.076651E-1,-4.7646713E-1,-3.0180333E0,9.0382576E-1,-5.663025E-1,4.5015664E0,1.4143528E-1],"split_indices":[13,9,6,0,0,0,12,0,0,0,0,0,0,0,0],"split_type":[0,0,0,1,1,1,0,0,0,0,0,0,0,0,0],"sum_hessian":[7.67E2,4.67E2,3E2,4.6E2,7E0,1.94E2,1.06E2,3.3E2,1.3E2,1E0,6E0,6.2E1,1.32E2,1.5E1,9.1E1],"tree_param":{"num_deleted":"0","num_feature":"23","num_nodes":"15","size_leaf_vector":"1"}},{"base_weights":[8.121401E-3,-5.9679E-1,5.2914224E0,-2.4052985E-1,-1.9131222E1,3.419757E1,